<?xml version="1.0"?>
<opencv_storage>
<cascade>
  <stageType>BOOST</stageType>
  <featureType>HAAR</featureType>
  <height>20</height>
  <width>20</width>
  <stageParams>
    <boostType>GAB</boostType>
    <minHitRate>9.9500000476837158e-01</minHitRate>
    <maxFalseAlarm>5.0000000000000000e-01</maxFalseAlarm>
    <weightTrimRate>9.4999999999999996e-01</weightTrimRate>
    <maxDepth>1</maxDepth>
    <maxWeakCount>100</maxWeakCount></stageParams>
  <featureParams>
    <maxCatCount>0</maxCatCount>
    <featSize>1</featSize>
    <mode>BASIC</mode></featureParams>
  <stageNum>14</stageNum>
  <stages>
    <!-- stage 0 -->
    <_>
      <maxWeakCount>9</maxWeakCount>
      <stageThreshold>-1.3900798559188843e+00</stageThreshold>
      <weakClassifiers>
        <_>
          <internalNodes>
            0 -1 283 1.0219745337963104e-02</internalNodes>
          <leafValues>
            -4.5112782716751099e-01 8.9502018690109253e-01</leafValues></_>
        <_>
          <internalNodes>
            0 -1 162 2.6883769314736128e-03</internalNodes>
          <leafValues>
            -5.5103939771652222e-01 5.7289260625839233e-01</leafValues></_>
        <_>
          <internalNodes>
            0 -1 295 -1.5123884659260511e-03</internalNodes>
          <leafValues>
            5.1469278335571289e-01 -2.8959017992019653e-01</leafValues></_>
        <_>
          <internalNodes>
            0 -1 329 5.9191830223426223e-04</internalNodes>
          <leafValues>
            -1.9790659844875336e-01 5.9684550762176514e-01</leafValues></_>
        <_>
          <internalNodes>
            0 -1 257 4.8158820718526840e-03</internalNodes>
          <leafValues>
            -2.1597293019294739e-01 5.3148651123046875e-01</leafValues></_>
        <_>
          <internalNodes>
            0 -1 204 -2.8557698242366314e-03</internalNodes>
          <leafValues>
            4.4838136434555054e-01 -2.3712244629859924e-01</leafValues></_>
        <_>
          <internalNodes>
            0 -1 364 -1.3763483148068190e-03</internalNodes>
          <leafValues>
            5.6638336181640625e-01 -1.9956700503826141e-01</leafValues></_>
        <_>
          <internalNodes>
            0 -1 128 -7.9207587987184525e-03</internalNodes>
          <leafValues>
            -6.4619117975234985e-01 1.3984906673431396e-01</leafValues></_>
        <_>
          <internalNodes>
            0 -1 266 3.1318664550781250e-03</internalNodes>
          <leafValues>
            -1.5355288982391357e-01 5.6130337715148926e-01</leafValues></_></weakClassifiers></_>
    <!-- stage 1 -->
    <_>
      <maxWeakCount>14</maxWeakCount>
      <stageThreshold>-1.1245177984237671e+00</stageThreshold>
      <weakClassifiers>
        <_>
          <internalNodes>
            0 -1 283 1.2149475514888763e-02</internalNodes>
          <leafValues>
            -3.3014354109764099e-01 7.9401993751525879e-01</leafValues></_>
        <_>
          <internalNodes>
            0 -1 256 1.8088177312165499e-03</internalNodes>
          <leafValues>
            -3.6312437057495117e-01 5.7019782066345215e-01</leafValues></_>
        <_>
          <internalNodes>
            0 -1 116 1.6039861366152763e-02</internalNodes>
          <leafValues>
            -4.7500392794609070e-01 3.1188148260116577e-01</leafValues></_>
        <_>
          <internalNodes>
            0 -1 295 -2.0035463385283947e-03</internalNodes>
          <leafValues>
            4.8647198081016541e-01 -2.7371832728385925e-01</leafValues></_>
        <_>
          <internalNodes>
            0 -1 427 1.5540618915110826e-03</internalNodes>
          <leafValues>
            -1.3332334160804749e-01 6.0439288616180420e-01</leafValues></_>
        <_>
          <internalNodes>
            0 -1 109 -7.4945506639778614e-04</internalNodes>
          <leafValues>
            4.5125204324722290e-01 -1.9904114305973053e-01</leafValues></_>
        <_>
          <internalNodes>
            0 -1 80 -4.7585496213287115e-04</internalNodes>
          <leafValues>
            3.3952528238296509e-01 -2.4722653627395630e-01</leafValues></_>
        <_>
          <internalNodes>
            0 -1 413 -1.1213119141757488e-03</internalNodes>
          <leafValues>
            5.6346648931503296e-01 -1.5055648982524872e-01</leafValues></_>
        <_>
          <internalNodes>
            0 -1 412 -7.1513303555548191e-04</internalNodes>
          <leafValues>
            3.9262166619300842e-01 -1.9567760825157166e-01</leafValues></_>
        <_>
          <internalNodes>
            0 -1 212 6.7615332081913948e-03</internalNodes>
          <leafValues>
            -3.3392769098281860e-01 2.1106624603271484e-01</leafValues></_>
        <_>
          <internalNodes>
            0 -1 146 2.7611725032329559e-02</internalNodes>
          <leafValues>
            8.5832424461841583e-02 -8.0223709344863892e-01</leafValues></_>
        <_>
          <internalNodes>
            0 -1 165 2.5405246764421463e-02</internalNodes>
          <leafValues>
            8.6871899664402008e-02 -7.1858096122741699e-01</leafValues></_>
        <_>
          <internalNodes>
            0 -1 127 -2.2653520572930574e-03</internalNodes>
          <leafValues>
            4.5754361152648926e-01 -1.8229910731315613e-01</leafValues></_>
        <_>
          <internalNodes>
            0 -1 194 -5.8500643353909254e-04</internalNodes>
          <leafValues>
            4.0385288000106812e-01 -1.9521893560886383e-01</leafValues></_></weakClassifiers></_>
    <!-- stage 2 -->
    <_>
      <maxWeakCount>27</maxWeakCount>
      <stageThreshold>-1.0875371694564819e+00</stageThreshold>
      <weakClassifiers>
        <_>
          <internalNodes>
            0 -1 283 8.7887654080986977e-03</internalNodes>
          <leafValues>
            -4.0049138665199280e-01 6.7741936445236206e-01</leafValues></_>
        <_>
          <internalNodes>
            0 -1 283 2.3442205041646957e-02</internalNodes>
          <leafValues>
            -1.3642281293869019e-01 7.3285526037216187e-01</leafValues></_>
        <_>
          <internalNodes>
            0 -1 152 1.7973233014345169e-02</internalNodes>
          <leafValues>
            -3.3619251847267151e-01 2.4748279154300690e-01</leafValues></_>
        <_>
          <internalNodes>
            0 -1 364 -9.7519467817619443e-04</internalNodes>
          <leafValues>
            3.3871471881866455e-01 -1.8849764764308929e-01</leafValues></_>
        <_>
          <internalNodes>
            0 -1 215 -6.8916333839297295e-04</internalNodes>
          <leafValues>
            3.1883955001831055e-01 -2.2009879350662231e-01</leafValues></_>
        <_>
          <internalNodes>
            0 -1 192 -3.0104095116257668e-02</internalNodes>
          <leafValues>
            -5.7278269529342651e-01 1.1525230109691620e-01</leafValues></_>
        <_>
          <internalNodes>
            0 -1 181 -7.3649315163493156e-04</internalNodes>
          <leafValues>
            3.7115103006362915e-01 -1.6429524123668671e-01</leafValues></_>
        <_>
          <internalNodes>
            0 -1 267 -1.5600033802911639e-03</internalNodes>
          <leafValues>
            3.7155649065971375e-01 -1.4155168831348419e-01</leafValues></_>
        <_>
          <internalNodes>
            0 -1 181 1.5528886578977108e-03</internalNodes>
          <leafValues>
            -9.5875374972820282e-02 4.9455875158309937e-01</leafValues></_>
        <_>
          <internalNodes>
            0 -1 132 5.0606850534677505e-02</internalNodes>
          <leafValues>
            8.4732450544834137e-02 -6.2348163127899170e-01</leafValues></_>
        <_>
          <internalNodes>
            0 -1 439 -1.6885455697774887e-03</internalNodes>
          <leafValues>
            3.0244892835617065e-01 -1.7369683086872101e-01</leafValues></_>
        <_>
          <internalNodes>
            0 -1 355 -2.3414082825183868e-02</internalNodes>
          <leafValues>
            -7.4459493160247803e-01 7.3358587920665741e-02</leafValues></_>
        <_>
          <internalNodes>
            0 -1 121 9.5769204199314117e-04</internalNodes>
          <leafValues>
            -1.4249439537525177e-01 3.7570670247077942e-01</leafValues></_>
        <_>
          <internalNodes>
            0 -1 237 1.9265242153778672e-03</internalNodes>
          <leafValues>
            -1.9221371412277222e-01 2.5239911675453186e-01</leafValues></_>
        <_>
          <internalNodes>
            0 -1 298 -6.5501418430358171e-04</internalNodes>
          <leafValues>
            -5.6431305408477783e-01 1.1139489710330963e-01</leafValues></_>
        <_>
          <internalNodes>
            0 -1 397 1.2097358703613281e-03</internalNodes>
          <leafValues>
            -1.2299506366252899e-01 4.0528386831283569e-01</leafValues></_>
        <_>
          <internalNodes>
            0 -1 170 1.5753827989101410e-02</internalNodes>
          <leafValues>
            8.7924957275390625e-02 -5.5088502168655396e-01</leafValues></_>
        <_>
          <internalNodes>
            0 -1 216 1.2370643205940723e-02</internalNodes>
          <leafValues>
            9.2598110437393188e-02 -4.5985758304595947e-01</leafValues></_>
        <_>
          <internalNodes>
            0 -1 3 6.4959330484271049e-03</internalNodes>
          <leafValues>
            1.3402026891708374e-01 -3.0751085281372070e-01</leafValues></_>
        <_>
          <internalNodes>
            0 -1 191 -3.3556860871613026e-03</internalNodes>
          <leafValues>
            3.5838994383811951e-01 -1.2370930612087250e-01</leafValues></_>
        <_>
          <internalNodes>
            0 -1 92 2.8693936765193939e-03</internalNodes>
          <leafValues>
            -9.9651120603084564e-02 4.5542228221893311e-01</leafValues></_>
        <_>
          <internalNodes>
            0 -1 32 7.8550388570874929e-04</internalNodes>
          <leafValues>
            1.0718752443790436e-01 -4.0462169051170349e-01</leafValues></_>
        <_>
          <internalNodes>
            0 -1 392 -2.9919818043708801e-02</internalNodes>
          <leafValues>
            -8.9179748296737671e-01 4.5353986322879791e-02</leafValues></_>
        <_>
          <internalNodes>
            0 -1 285 -4.1070025414228439e-02</internalNodes>
          <leafValues>
            -5.2390664815902710e-01 7.3907732963562012e-02</leafValues></_>
        <_>
          <internalNodes>
            0 -1 378 -1.7953736241906881e-03</internalNodes>
          <leafValues>
            2.7872541546821594e-01 -1.6244986653327942e-01</leafValues></_>
        <_>
          <internalNodes>
            0 -1 412 -1.5360102988779545e-03</internalNodes>
          <leafValues>
            3.3079865574836731e-01 -1.4574721455574036e-01</leafValues></_>
        <_>
          <internalNodes>
            0 -1 297 4.0619015693664551e-02</internalNodes>
          <leafValues>
            8.2980513572692871e-02 -6.5522772073745728e-01</leafValues></_></weakClassifiers></_>
    <!-- stage 3 -->
    <_>
      <maxWeakCount>31</maxWeakCount>
      <stageThreshold>-1.0758725404739380e+00</stageThreshold>
      <weakClassifiers>
        <_>
          <internalNodes>
            0 -1 257 5.1466934382915497e-03</internalNodes>
          <leafValues>
            -1.3790112733840942e-01 7.2226196527481079e-01</leafValues></_>
        <_>
          <internalNodes>
            0 -1 283 1.9641730934381485e-02</internalNodes>
          <leafValues>
            -1.8683293461799622e-01 5.6760340929031372e-01</leafValues></_>
        <_>
          <internalNodes>
            0 -1 363 -3.2056199852377176e-03</internalNodes>
          <leafValues>
            6.2377738952636719e-01 -1.0600479692220688e-01</leafValues></_>
        <_>
          <internalNodes>
            0 -1 388 -2.5204997509717941e-03</internalNodes>
          <leafValues>
            5.0541996955871582e-01 -1.9918908178806305e-01</leafValues></_>
        <_>
          <internalNodes>
            0 -1 248 -8.6292587220668793e-02</internalNodes>
          <leafValues>
            -6.6125321388244629e-01 9.4398386776447296e-02</leafValues></_>
        <_>
          <internalNodes>
            0 -1 55 -1.9631665199995041e-03</internalNodes>
          <leafValues>
            4.3122830986976624e-01 -1.3217340409755707e-01</leafValues></_>
        <_>
          <internalNodes>
            0 -1 134 -1.1821754742413759e-03</internalNodes>
          <leafValues>
            3.3636647462844849e-01 -1.5686011314392090e-01</leafValues></_>
        <_>
          <internalNodes>
            0 -1 251 -1.8637554603628814e-04</internalNodes>
          <leafValues>
            2.8188371658325195e-01 -1.8937358260154724e-01</leafValues></_>
        <_>
          <internalNodes>
            0 -1 34 -2.0173238590359688e-03</internalNodes>
          <leafValues>
            1.6453915834426880e-01 -3.2143330574035645e-01</leafValues></_>
        <_>
          <internalNodes>
            0 -1 349 3.9924867451190948e-02</internalNodes>
          <leafValues>
            8.6962014436721802e-02 -5.7243269681930542e-01</leafValues></_>
        <_>
          <internalNodes>
            0 -1 17 -1.1127345263957977e-01</internalNodes>
          <leafValues>
            -5.3504556417465210e-01 9.2295855283737183e-02</leafValues></_>
        <_>
          <internalNodes>
            0 -1 107 1.3608809094876051e-03</internalNodes>
          <leafValues>
            -1.3065207004547119e-01 3.7392345070838928e-01</leafValues></_>
        <_>
          <internalNodes>
            0 -1 396 -8.1580452388152480e-04</internalNodes>
          <leafValues>
            2.8318876028060913e-01 -1.6101168096065521e-01</leafValues></_>
        <_>
          <internalNodes>
            0 -1 157 -1.1177614796906710e-03</internalNodes>
          <leafValues>
            2.5026491284370422e-01 -1.6940006613731384e-01</leafValues></_>
        <_>
          <internalNodes>
            0 -1 249 -1.8731860909610987e-03</internalNodes>
          <leafValues>
            1.4952532947063446e-01 -3.0136442184448242e-01</leafValues></_>
        <_>
          <internalNodes>
            0 -1 174 -1.6571890562772751e-02</internalNodes>
          <leafValues>
            -4.7825169563293457e-01 8.8441170752048492e-02</leafValues></_>
        <_>
          <internalNodes>
            0 -1 145 8.5862807463854551e-04</internalNodes>
          <leafValues>
            -1.3722720742225647e-01 3.1380468606948853e-01</leafValues></_>
        <_>
          <internalNodes>
            0 -1 69 3.5919606685638428e-02</internalNodes>
          <leafValues>
            5.5748380720615387e-02 -8.0634498596191406e-01</leafValues></_>
        <_>
          <internalNodes>
            0 -1 389 2.0776586607098579e-03</internalNodes>
          <leafValues>
            -9.8167844116687775e-02 5.0181698799133301e-01</leafValues></_>
        <_>
          <internalNodes>
            0 -1 389 -6.3721439801156521e-04</internalNodes>
          <leafValues>
            3.6681258678436279e-01 -1.2589934468269348e-01</leafValues></_>
        <_>
          <internalNodes>
            0 -1 200 4.4618537649512291e-03</internalNodes>
          <leafValues>
            -1.2349022924900055e-01 3.6411252617835999e-01</leafValues></_>
        <_>
          <internalNodes>
            0 -1 25 -8.7105125188827515e-02</internalNodes>
          <leafValues>
            4.6929860115051270e-01 -8.4080278873443604e-02</leafValues></_>
        <_>
          <internalNodes>
            0 -1 125 -4.6854983083903790e-03</internalNodes>
          <leafValues>
            -7.0736533403396606e-01 6.7489862442016602e-02</leafValues></_>
        <_>
          <internalNodes>
            0 -1 149 1.6306914389133453e-02</internalNodes>
          <leafValues>
            -2.9824075102806091e-01 1.4599409699440002e-01</leafValues></_>
        <_>
          <internalNodes>
            0 -1 420 -1.9044154323637486e-03</internalNodes>
          <leafValues>
            5.4826277494430542e-01 -8.6053878068923950e-02</leafValues></_>
        <_>
          <internalNodes>
            0 -1 70 1.0639388347044587e-03</internalNodes>
          <leafValues>
            -1.0539482533931732e-01 3.9412629604339600e-01</leafValues></_>
        <_>
          <internalNodes>
            0 -1 329 8.6738215759396553e-04</internalNodes>
          <leafValues>
            -1.0091414302587509e-01 4.2640703916549683e-01</leafValues></_>
        <_>
          <internalNodes>
            0 -1 240 -2.7846643701195717e-02</internalNodes>
          <leafValues>
            -6.9561296701431274e-01 7.4731610715389252e-02</leafValues></_>
        <_>
          <internalNodes>
            0 -1 302 2.3221899755299091e-03</internalNodes>
          <leafValues>
            7.7218264341354370e-02 -5.3749233484268188e-01</leafValues></_>
        <_>
          <internalNodes>
            0 -1 367 -3.1387943774461746e-02</internalNodes>
          <leafValues>
            -6.1221271753311157e-01 6.9094620645046234e-02</leafValues></_>
        <_>
          <internalNodes>
            0 -1 42 2.1257476881146431e-02</internalNodes>
          <leafValues>
            -1.5086160600185394e-01 2.8527611494064331e-01</leafValues></_></weakClassifiers></_>
    <!-- stage 4 -->
    <_>
      <maxWeakCount>29</maxWeakCount>
      <stageThreshold>-9.5225185155868530e-01</stageThreshold>
      <weakClassifiers>
        <_>
          <internalNodes>
            0 -1 158 3.0033400282263756e-02</internalNodes>
          <leafValues>
            -1.7228104174137115e-01 6.8100595474243164e-01</leafValues></_>
        <_>
          <internalNodes>
            0 -1 288 1.2126294896006584e-02</internalNodes>
          <leafValues>
            -1.8469935655593872e-01 6.6606277227401733e-01</leafValues></_>
        <_>
          <internalNodes>
            0 -1 438 -1.6442688647657633e-03</internalNodes>
          <leafValues>
            3.9620903134346008e-01 -1.5386100113391876e-01</leafValues></_>
        <_>
          <internalNodes>
            0 -1 5 -2.7128704823553562e-03</internalNodes>
          <leafValues>
            -4.1394725441932678e-01 1.5767459571361542e-01</leafValues></_>
        <_>
          <internalNodes>
            0 -1 353 7.5702858157455921e-04</internalNodes>
          <leafValues>
            -2.3010674118995667e-01 3.0293014645576477e-01</leafValues></_>
        <_>
          <internalNodes>
            0 -1 300 -1.3039181940257549e-03</internalNodes>
          <leafValues>
            2.7695244550704956e-01 -1.8414801359176636e-01</leafValues></_>
        <_>
          <internalNodes>
            0 -1 164 -7.1215312927961349e-03</internalNodes>
          <leafValues>
            -3.9171037077903748e-01 1.4814148843288422e-01</leafValues></_>
        <_>
          <internalNodes>
            0 -1 223 -8.5977290291339159e-04</internalNodes>
          <leafValues>
            2.6414284110069275e-01 -1.9672262668609619e-01</leafValues></_>
        <_>
          <internalNodes>
            0 -1 9 -8.4449779242277145e-03</internalNodes>
          <leafValues>
            -7.0898282527923584e-01 7.8946970403194427e-02</leafValues></_>
        <_>
          <internalNodes>
            0 -1 111 3.5388700198382139e-03</internalNodes>
          <leafValues>
            7.3277384042739868e-02 -5.9977740049362183e-01</leafValues></_>
        <_>
          <internalNodes>
            0 -1 77 -1.0036845924332738e-03</internalNodes>
          <leafValues>
            1.2734766304492950e-01 -3.7398394942283630e-01</leafValues></_>
        <_>
          <internalNodes>
            0 -1 287 2.3306964430958033e-04</internalNodes>
          <leafValues>
            -1.8058466911315918e-01 2.5370103120803833e-01</leafValues></_>
        <_>
          <internalNodes>
            0 -1 386 6.5213488414883614e-03</internalNodes>
          <leafValues>
            -9.5766708254814148e-02 4.7222512960433960e-01</leafValues></_>
        <_>
          <internalNodes>
            0 -1 384 -2.3459659423679113e-03</internalNodes>
          <leafValues>
            3.3838585019111633e-01 -1.5017825365066528e-01</leafValues></_>
        <_>
          <internalNodes>
            0 -1 19 -5.5871764197945595e-03</internalNodes>
          <leafValues>
            -4.2327633500099182e-01 1.1896874010562897e-01</leafValues></_>
        <_>
          <internalNodes>
            0 -1 325 -3.8030289113521576e-02</internalNodes>
          <leafValues>
            -3.1486597657203674e-01 1.4966516196727753e-01</leafValues></_>
        <_>
          <internalNodes>
            0 -1 433 -1.8431695643812418e-03</internalNodes>
          <leafValues>
            -5.7353520393371582e-01 7.4443519115447998e-02</leafValues></_>
        <_>
          <internalNodes>
            0 -1 123 -3.8340864703059196e-03</internalNodes>
          <leafValues>
            2.9820892214775085e-01 -1.5544268488883972e-01</leafValues></_>
        <_>
          <internalNodes>
            0 -1 435 -5.7795513421297073e-03</internalNodes>
          <leafValues>
            -5.6278175115585327e-01 8.0226093530654907e-02</leafValues></_>
        <_>
          <internalNodes>
            0 -1 310 -1.7830460565164685e-03</internalNodes>
          <leafValues>
            2.7482670545578003e-01 -1.6425554454326630e-01</leafValues></_>
        <_>
          <internalNodes>
            0 -1 307 3.8888584822416306e-03</internalNodes>
          <leafValues>
            6.6946253180503845e-02 -6.6311705112457275e-01</leafValues></_>
        <_>
          <internalNodes>
            0 -1 263 -1.6373116523027420e-03</internalNodes>
          <leafValues>
            2.7866652607917786e-01 -1.6351385414600372e-01</leafValues></_>
        <_>
          <internalNodes>
            0 -1 296 2.9531173408031464e-02</internalNodes>
          <leafValues>
            -6.2859527766704559e-02 6.8345475196838379e-01</leafValues></_>
        <_>
          <internalNodes>
            0 -1 276 -6.2007136875763535e-04</internalNodes>
          <leafValues>
            -3.1640091538429260e-01 1.4935685694217682e-01</leafValues></_>
        <_>
          <internalNodes>
            0 -1 291 3.8968633860349655e-02</internalNodes>
          <leafValues>
            7.2052404284477234e-02 -6.6357046365737915e-01</leafValues></_>
        <_>
          <internalNodes>
            0 -1 400 -1.2178132310509682e-03</internalNodes>
          <leafValues>
            -4.6685421466827393e-01 7.9207293689250946e-02</leafValues></_>
        <_>
          <internalNodes>
            0 -1 356 -1.8339164089411497e-03</internalNodes>
          <leafValues>
            3.8298147916793823e-01 -1.0309881716966629e-01</leafValues></_>
        <_>
          <internalNodes>
            0 -1 327 1.1977786198258400e-02</internalNodes>
          <leafValues>
            7.6755389571189880e-02 -5.8318781852722168e-01</leafValues></_>
        <_>
          <internalNodes>
            0 -1 452 1.9018885723198764e-05</internalNodes>
          <leafValues>
            -1.8648891150951385e-01 2.2954833507537842e-01</leafValues></_></weakClassifiers></_>
    <!-- stage 5 -->
    <_>
      <maxWeakCount>33</maxWeakCount>
      <stageThreshold>-8.3432179689407349e-01</stageThreshold>
      <weakClassifiers>
        <_>
          <internalNodes>
            0 -1 283 1.3969024643301964e-02</internalNodes>
          <leafValues>
            -2.0155793428421021e-01 6.9402498006820679e-01</leafValues></_>
        <_>
          <internalNodes>
            0 -1 301 -8.1017389893531799e-03</internalNodes>
          <leafValues>
            3.8105148077011108e-01 -2.9487538337707520e-01</leafValues></_>
        <_>
          <internalNodes>
            0 -1 298 -1.8159660976380110e-04</internalNodes>
          <leafValues>
            -5.6556594371795654e-01 1.4100918173789978e-01</leafValues></_>
        <_>
          <internalNodes>
            0 -1 408 -1.9054789096117020e-02</internalNodes>
          <leafValues>
            4.4165918231010437e-01 -1.4167000353336334e-01</leafValues></_>
        <_>
          <internalNodes>
            0 -1 148 7.7550895512104034e-03</internalNodes>
          <leafValues>
            -2.9802316427230835e-01 1.6573809087276459e-01</leafValues></_>
        <_>
          <internalNodes>
            0 -1 315 3.1479801982641220e-03</internalNodes>
          <leafValues>
            2.3970233276486397e-02 -6.1848688125610352e-01</leafValues></_>
        <_>
          <internalNodes>
            0 -1 268 6.4661819487810135e-03</internalNodes>
          <leafValues>
            8.8400572538375854e-02 -5.3538644313812256e-01</leafValues></_>
        <_>
          <internalNodes>
            0 -1 112 -7.6547181233763695e-03</internalNodes>
          <leafValues>
            -7.8170299530029297e-01 3.7971679121255875e-02</leafValues></_>
        <_>
          <internalNodes>
            0 -1 443 -4.3568331748247147e-03</internalNodes>
          <leafValues>
            -6.9365334510803223e-01 4.9543697386980057e-02</leafValues></_>
        <_>
          <internalNodes>
            0 -1 388 -2.4510165676474571e-03</internalNodes>
          <leafValues>
            3.4276041388511658e-01 -1.1395957320928574e-01</leafValues></_>
        <_>
          <internalNodes>
            0 -1 299 -4.0294061182066798e-04</internalNodes>
          <leafValues>
            1.9249634444713593e-01 -2.1073628962039948e-01</leafValues></_>
        <_>
          <internalNodes>
            0 -1 455 -2.1316742058843374e-03</internalNodes>
          <leafValues>
            -4.4769462943077087e-01 9.5414526760578156e-02</leafValues></_>
        <_>
          <internalNodes>
            0 -1 294 -3.1577043700963259e-03</internalNodes>
          <leafValues>
            -5.5961239337921143e-01 6.6258341073989868e-02</leafValues></_>
        <_>
          <internalNodes>
            0 -1 61 5.4102391004562378e-03</internalNodes>
          <leafValues>
            -1.9494287669658661e-01 1.9047103822231293e-01</leafValues></_>
        <_>
          <internalNodes>
            0 -1 48 1.0796824470162392e-02</internalNodes>
          <leafValues>
            -9.7370579838752747e-02 3.7229102849960327e-01</leafValues></_>
        <_>
          <internalNodes>
            0 -1 34 3.0961737502366304e-04</internalNodes>
          <leafValues>
            1.1285407096147537e-01 -4.1273680329322815e-01</leafValues></_>
        <_>
          <internalNodes>
            0 -1 466 1.3992143794894218e-03</internalNodes>
          <leafValues>
            8.1333480775356293e-02 -4.6009311079978943e-01</leafValues></_>
        <_>
          <internalNodes>
            0 -1 14 1.3882169499993324e-02</internalNodes>
          <leafValues>
            8.5356675088405609e-02 -3.9290767908096313e-01</leafValues></_>
        <_>
          <internalNodes>
            0 -1 280 -1.2074464000761509e-02</internalNodes>
          <leafValues>
            -6.8201136589050293e-01 5.0898410379886627e-02</leafValues></_>
        <_>
          <internalNodes>
            0 -1 79 1.3596315402537584e-03</internalNodes>
          <leafValues>
            -1.0730367898941040e-01 3.3729293942451477e-01</leafValues></_>
        <_>
          <internalNodes>
            0 -1 210 7.2514992207288742e-03</internalNodes>
          <leafValues>
            6.4898721873760223e-02 -5.0481265783309937e-01</leafValues></_>
        <_>
          <internalNodes>
            0 -1 345 7.6945184264332056e-04</internalNodes>
          <leafValues>
            9.3525037169456482e-02 -3.7795904278755188e-01</leafValues></_>
        <_>
          <internalNodes>
            0 -1 30 -5.9892907738685608e-03</internalNodes>
          <leafValues>
            2.7937906980514526e-01 -1.3272517919540405e-01</leafValues></_>
        <_>
          <internalNodes>
            0 -1 114 2.0298954099416733e-02</internalNodes>
          <leafValues>
            5.8341287076473236e-02 -6.2890172004699707e-01</leafValues></_>
        <_>
          <internalNodes>
            0 -1 217 -6.6061099059879780e-03</internalNodes>
          <leafValues>
            -3.6055955290794373e-01 9.8049499094486237e-02</leafValues></_>
        <_>
          <internalNodes>
            0 -1 21 4.1780942119657993e-03</internalNodes>
          <leafValues>
            6.1317179352045059e-02 -5.5718630552291870e-01</leafValues></_>
        <_>
          <internalNodes>
            0 -1 457 1.4017628272995353e-03</internalNodes>
          <leafValues>
            7.3364682495594025e-02 -4.4697138667106628e-01</leafValues></_>
        <_>
          <internalNodes>
            0 -1 51 -1.1188762262463570e-02</internalNodes>
          <leafValues>
            1.6012014448642731e-01 -2.3051929473876953e-01</leafValues></_>
        <_>
          <internalNodes>
            0 -1 352 -2.3745551705360413e-02</internalNodes>
          <leafValues>
            -7.3444503545761108e-01 4.5709162950515747e-02</leafValues></_>
        <_>
          <internalNodes>
            0 -1 45 7.8682720661163330e-02</internalNodes>
          <leafValues>
            -7.4155554175376892e-02 5.6646156311035156e-01</leafValues></_>
        <_>
          <internalNodes>
            0 -1 141 5.3755287081003189e-04</internalNodes>
          <leafValues>
            1.4904725551605225e-01 -2.7150169014930725e-01</leafValues></_>
        <_>
          <internalNodes>
            0 -1 26 -9.6715569496154785e-02</internalNodes>
          <leafValues>
            5.5318361520767212e-01 -6.9494612514972687e-02</leafValues></_>
        <_>
          <internalNodes>
            0 -1 131 -7.3623470962047577e-04</internalNodes>
          <leafValues>
            3.0558097362518311e-01 -1.1745333671569824e-01</leafValues></_></weakClassifiers></_>
    <!-- stage 6 -->
    <_>
      <maxWeakCount>43</maxWeakCount>
      <stageThreshold>-8.4863024950027466e-01</stageThreshold>
      <weakClassifiers>
        <_>
          <internalNodes>
            0 -1 283 2.1347254514694214e-02</internalNodes>
          <leafValues>
            1.2345679104328156e-02 7.1014493703842163e-01</leafValues></_>
        <_>
          <internalNodes>
            0 -1 120 9.8267113789916039e-03</internalNodes>
          <leafValues>
            -1.5916749835014343e-01 3.9828541874885559e-01</leafValues></_>
        <_>
          <internalNodes>
            0 -1 440 -3.3780843950808048e-03</internalNodes>
          <leafValues>
            3.0649852752685547e-01 -1.6760611534118652e-01</leafValues></_>
        <_>
          <internalNodes>
            0 -1 384 5.7832011952996254e-03</internalNodes>
          <leafValues>
            -1.0206057876348495e-01 4.1168516874313354e-01</leafValues></_>
        <_>
          <internalNodes>
            0 -1 414 8.1474735634401441e-04</internalNodes>
          <leafValues>
            -2.1171942353248596e-01 2.2634710371494293e-01</leafValues></_>
        <_>
          <internalNodes>
            0 -1 146 2.7607847005128860e-02</internalNodes>
          <leafValues>
            5.5105566978454590e-02 -6.7236733436584473e-01</leafValues></_>
        <_>
          <internalNodes>
            0 -1 310 -7.2742777410894632e-04</internalNodes>
          <leafValues>
            1.6780376434326172e-01 -1.9644038379192352e-01</leafValues></_>
        <_>
          <internalNodes>
            0 -1 424 -6.1284881085157394e-03</internalNodes>
          <leafValues>
            -6.1706739664077759e-01 5.3257908672094345e-02</leafValues></_>
        <_>
          <internalNodes>
            0 -1 235 -1.2056890875101089e-02</internalNodes>
          <leafValues>
            -4.3912526965141296e-01 7.4801065027713776e-02</leafValues></_>
        <_>
          <internalNodes>
            0 -1 155 1.3276290148496628e-02</internalNodes>
          <leafValues>
            -1.0280475020408630e-01 3.7381839752197266e-01</leafValues></_>
        <_>
          <internalNodes>
            0 -1 428 -1.1810609139502048e-03</internalNodes>
          <leafValues>
            2.8661531209945679e-01 -1.2046188861131668e-01</leafValues></_>
        <_>
          <internalNodes>
            0 -1 317 1.5958034200593829e-03</internalNodes>
          <leafValues>
            -1.1881148815155029e-01 3.0747240781784058e-01</leafValues></_>
        <_>
          <internalNodes>
            0 -1 196 -2.7461754158139229e-02</internalNodes>
          <leafValues>
            -3.9110079407691956e-01 9.1848745942115784e-02</leafValues></_>
        <_>
          <internalNodes>
            0 -1 387 -2.0564945414662361e-02</internalNodes>
          <leafValues>
            -5.8280545473098755e-01 5.6093532592058182e-02</leafValues></_>
        <_>
          <internalNodes>
            0 -1 401 -4.6120919287204742e-03</internalNodes>
          <leafValues>
            -4.2438399791717529e-01 7.4277490377426147e-02</leafValues></_>
        <_>
          <internalNodes>
            0 -1 269 4.2605893686413765e-03</internalNodes>
          <leafValues>
            -1.0276211798191071e-01 3.5385057330131531e-01</leafValues></_>
        <_>
          <internalNodes>
            0 -1 267 -1.2285484699532390e-03</internalNodes>
          <leafValues>
            2.8639534115791321e-01 -1.4277727901935577e-01</leafValues></_>
        <_>
          <internalNodes>
            0 -1 298 -2.2620209492743015e-03</internalNodes>
          <leafValues>
            -8.2626289129257202e-01 4.9347247928380966e-02</leafValues></_>
        <_>
          <internalNodes>
            0 -1 89 1.1117031099274755e-03</internalNodes>
          <leafValues>
            7.6987065374851227e-02 -3.8284498453140259e-01</leafValues></_>
        <_>
          <internalNodes>
            0 -1 242 -1.1955325026065111e-03</internalNodes>
          <leafValues>
            2.3655250668525696e-01 -1.2697865068912506e-01</leafValues></_>
        <_>
          <internalNodes>
            0 -1 236 -2.2201910614967346e-03</internalNodes>
          <leafValues>
            -3.5377216339111328e-01 9.4266004860401154e-02</leafValues></_>
        <_>
          <internalNodes>
            0 -1 423 4.4451281428337097e-03</internalNodes>
          <leafValues>
            4.3662261217832565e-02 -6.0220104455947876e-01</leafValues></_>
        <_>
          <internalNodes>
            0 -1 113 -1.1349407956004143e-02</internalNodes>
          <leafValues>
            -5.9933626651763916e-01 4.3987687677145004e-02</leafValues></_>
        <_>
          <internalNodes>
            0 -1 304 -6.2201697379350662e-02</internalNodes>
          <leafValues>
            -4.2027744650840759e-01 7.2594806551933289e-02</leafValues></_>
        <_>
          <internalNodes>
            0 -1 412 -1.0149555746465921e-03</internalNodes>
          <leafValues>
            2.5328341126441956e-01 -1.3591569662094116e-01</leafValues></_>
        <_>
          <internalNodes>
            0 -1 379 -3.2796629238873720e-04</internalNodes>
          <leafValues>
            1.9994838535785675e-01 -1.6721315681934357e-01</leafValues></_>
        <_>
          <internalNodes>
            0 -1 293 6.2006153166294098e-04</internalNodes>
          <leafValues>
            -2.5361067056655884e-01 1.3952168822288513e-01</leafValues></_>
        <_>
          <internalNodes>
            0 -1 332 -1.9763680174946785e-03</internalNodes>
          <leafValues>
            2.9122173786163330e-01 -1.3465315103530884e-01</leafValues></_>
        <_>
          <internalNodes>
            0 -1 187 4.8653315752744675e-03</internalNodes>
          <leafValues>
            1.0013195872306824e-01 -3.6355611681938171e-01</leafValues></_>
        <_>
          <internalNodes>
            0 -1 305 -1.9358871504664421e-03</internalNodes>
          <leafValues>
            2.8669765591621399e-01 -1.2375014275312424e-01</leafValues></_>
        <_>
          <internalNodes>
            0 -1 153 -1.6171866445802152e-04</internalNodes>
          <leafValues>
            2.2038497030735016e-01 -1.5523889660835266e-01</leafValues></_>
        <_>
          <internalNodes>
            0 -1 106 4.4110830640420318e-04</internalNodes>
          <leafValues>
            -3.8576683402061462e-01 9.2267923057079315e-02</leafValues></_>
        <_>
          <internalNodes>
            0 -1 6 -1.2862510979175568e-02</internalNodes>
          <leafValues>
            1.8613196909427643e-01 -1.7816253006458282e-01</leafValues></_>
        <_>
          <internalNodes>
            0 -1 368 -1.1497333180159330e-03</internalNodes>
          <leafValues>
            3.2272833585739136e-01 -9.0922661125659943e-02</leafValues></_>
        <_>
          <internalNodes>
            0 -1 195 -5.9085767716169357e-03</internalNodes>
          <leafValues>
            -8.3000022172927856e-01 3.8462676107883453e-02</leafValues></_>
        <_>
          <internalNodes>
            0 -1 459 -3.6600371822714806e-03</internalNodes>
          <leafValues>
            -3.9233502745628357e-01 6.6137656569480896e-02</leafValues></_>
        <_>
          <internalNodes>
            0 -1 338 -3.0081272125244141e-03</internalNodes>
          <leafValues>
            1.8023915588855743e-01 -1.5768252313137054e-01</leafValues></_>
        <_>
          <internalNodes>
            0 -1 292 -4.0867120027542114e-02</internalNodes>
          <leafValues>
            -4.1516560316085815e-01 7.2407357394695282e-02</leafValues></_>
        <_>
          <internalNodes>
            0 -1 282 -5.4224375635385513e-03</internalNodes>
          <leafValues>
            -4.8155969381332397e-01 6.0105986893177032e-02</leafValues></_>
        <_>
          <internalNodes>
            0 -1 273 9.3084909021854401e-03</internalNodes>
          <leafValues>
            -1.2437543272972107e-01 2.4111701548099518e-01</leafValues></_>
        <_>
          <internalNodes>
            0 -1 159 -9.0678632259368896e-03</internalNodes>
          <leafValues>
            1.4357538521289825e-01 -2.1461021900177002e-01</leafValues></_>
        <_>
          <internalNodes>
            0 -1 119 4.2125429958105087e-02</internalNodes>
          <leafValues>
            5.7740580290555954e-02 -5.1806080341339111e-01</leafValues></_>
        <_>
          <internalNodes>
            0 -1 434 1.4764429070055485e-03</internalNodes>
          <leafValues>
            8.9086465537548065e-02 -3.4089258313179016e-01</leafValues></_></weakClassifiers></_>
    <!-- stage 7 -->
    <_>
      <maxWeakCount>37</maxWeakCount>
      <stageThreshold>-7.8599214553833008e-01</stageThreshold>
      <weakClassifiers>
        <_>
          <internalNodes>
            0 -1 301 -1.2971657328307629e-02</internalNodes>
          <leafValues>
            6.6818183660507202e-01 -2.6016259565949440e-02</leafValues></_>
        <_>
          <internalNodes>
            0 -1 183 1.1718105524778366e-02</internalNodes>
          <leafValues>
            -2.1776071190834045e-01 3.3117789030075073e-01</leafValues></_>
        <_>
          <internalNodes>
            0 -1 98 2.6021542027592659e-02</internalNodes>
          <leafValues>
            -2.7528336644172668e-01 1.9166642427444458e-01</leafValues></_>
        <_>
          <internalNodes>
            0 -1 16 1.3700358103960752e-03</internalNodes>
          <leafValues>
            8.3741679787635803e-02 -5.1837557554244995e-01</leafValues></_>
        <_>
          <internalNodes>
            0 -1 12 -1.8852626672014594e-03</internalNodes>
          <leafValues>
            -4.4936677813529968e-01 8.6656257510185242e-02</leafValues></_>
        <_>
          <internalNodes>
            0 -1 407 -1.6598943620920181e-02</internalNodes>
          <leafValues>
            3.1920430064201355e-01 -1.2996059656143188e-01</leafValues></_>
        <_>
          <internalNodes>
            0 -1 318 -4.0420636651106179e-04</internalNodes>
          <leafValues>
            -3.1413295865058899e-01 1.0106416046619415e-01</leafValues></_>
        <_>
          <internalNodes>
            0 -1 347 2.1660393103957176e-03</internalNodes>
          <leafValues>
            6.3876487314701080e-02 -5.4725193977355957e-01</leafValues></_>
        <_>
          <internalNodes>
            0 -1 403 2.2739687934517860e-02</internalNodes>
          <leafValues>
            -8.9927963912487030e-02 3.9469087123870850e-01</leafValues></_>
        <_>
          <internalNodes>
            0 -1 424 -4.1037276387214661e-03</internalNodes>
          <leafValues>
            -4.5972323417663574e-01 7.7903337776660919e-02</leafValues></_>
        <_>
          <internalNodes>
            0 -1 444 -5.5334297940135002e-03</internalNodes>
          <leafValues>
            -5.1650702953338623e-01 7.3827251791954041e-02</leafValues></_>
        <_>
          <internalNodes>
            0 -1 221 -2.1479502320289612e-02</internalNodes>
          <leafValues>
            3.1148236989974976e-01 -1.2407676130533218e-01</leafValues></_>
        <_>
          <internalNodes>
            0 -1 111 5.8046085759997368e-03</internalNodes>
          <leafValues>
            4.7151435166597366e-02 -8.6637514829635620e-01</leafValues></_>
        <_>
          <internalNodes>
            0 -1 32 6.4672139706090093e-04</internalNodes>
          <leafValues>
            1.0065249353647232e-01 -3.0586731433868408e-01</leafValues></_>
        <_>
          <internalNodes>
            0 -1 143 1.6157970530912280e-03</internalNodes>
          <leafValues>
            -1.3158610463142395e-01 2.6546600461006165e-01</leafValues></_>
        <_>
          <internalNodes>
            0 -1 72 2.4472617078572512e-03</internalNodes>
          <leafValues>
            -1.0694973170757294e-01 3.0173587799072266e-01</leafValues></_>
        <_>
          <internalNodes>
            0 -1 197 -2.6159249246120453e-03</internalNodes>
          <leafValues>
            -6.3924914598464966e-01 4.7420404851436615e-02</leafValues></_>
        <_>
          <internalNodes>
            0 -1 15 1.8643472343683243e-02</internalNodes>
          <leafValues>
            -1.1751169711351395e-01 2.8055629134178162e-01</leafValues></_>
        <_>
          <internalNodes>
            0 -1 58 -1.2225250247865915e-03</internalNodes>
          <leafValues>
            -2.7686503529548645e-01 1.1867500841617584e-01</leafValues></_>
        <_>
          <internalNodes>
            0 -1 117 -1.5504930634051561e-03</internalNodes>
          <leafValues>
            -3.5765811800956726e-01 8.9490525424480438e-02</leafValues></_>
        <_>
          <internalNodes>
            0 -1 180 4.7494187019765377e-03</internalNodes>
          <leafValues>
            1.5347330272197723e-01 -2.5171855092048645e-01</leafValues></_>
        <_>
          <internalNodes>
            0 -1 298 -1.3287570618558675e-04</internalNodes>
          <leafValues>
            -4.4157275557518005e-01 6.7891217768192291e-02</leafValues></_>
        <_>
          <internalNodes>
            0 -1 104 5.1332553848624229e-03</internalNodes>
          <leafValues>
            -9.9381737411022186e-02 3.4899657964706421e-01</leafValues></_>
        <_>
          <internalNodes>
            0 -1 319 -1.1259289458394051e-03</internalNodes>
          <leafValues>
            -4.2570942640304565e-01 6.8679548799991608e-02</leafValues></_>
        <_>
          <internalNodes>
            0 -1 10 2.0436071790754795e-03</internalNodes>
          <leafValues>
            8.2777187228202820e-02 -3.4622094035148621e-01</leafValues></_>
        <_>
          <internalNodes>
            0 -1 134 -1.2054290855303407e-03</internalNodes>
          <leafValues>
            2.2658012807369232e-01 -1.3290642201900482e-01</leafValues></_>
        <_>
          <internalNodes>
            0 -1 126 -5.8987317606806755e-03</internalNodes>
          <leafValues>
            -6.1472141742706299e-01 4.9081075936555862e-02</leafValues></_>
        <_>
          <internalNodes>
            0 -1 447 -2.1318071521818638e-03</internalNodes>
          <leafValues>
            -5.2237993478775024e-01 4.8660781234502792e-02</leafValues></_>
        <_>
          <internalNodes>
            0 -1 252 4.1834339499473572e-03</internalNodes>
          <leafValues>
            -1.7883658409118652e-01 1.6216638684272766e-01</leafValues></_>
        <_>
          <internalNodes>
            0 -1 11 -7.1912882849574089e-03</internalNodes>
          <leafValues>
            2.1151253581047058e-01 -1.4110845327377319e-01</leafValues></_>
        <_>
          <internalNodes>
            0 -1 147 3.7342153489589691e-02</internalNodes>
          <leafValues>
            3.8396500051021576e-02 -8.9696115255355835e-01</leafValues></_>
        <_>
          <internalNodes>
            0 -1 178 6.5455208532512188e-03</internalNodes>
          <leafValues>
            -9.3461476266384125e-02 3.6422863602638245e-01</leafValues></_>
        <_>
          <internalNodes>
            0 -1 206 -3.3762929961085320e-03</internalNodes>
          <leafValues>
            2.2791796922683716e-01 -1.4422592520713806e-01</leafValues></_>
        <_>
          <internalNodes>
            0 -1 265 -2.9705497436225414e-03</internalNodes>
          <leafValues>
            2.3172481358051300e-01 -1.4979696273803711e-01</leafValues></_>
        <_>
          <internalNodes>
            0 -1 40 1.5065199695527554e-03</internalNodes>
          <leafValues>
            6.8703524768352509e-02 -4.8546391725540161e-01</leafValues></_>
        <_>
          <internalNodes>
            0 -1 46 3.0199080705642700e-02</internalNodes>
          <leafValues>
            -5.2916083484888077e-02 6.4185035228729248e-01</leafValues></_>
        <_>
          <internalNodes>
            0 -1 328 -2.6274286210536957e-03</internalNodes>
          <leafValues>
            3.6411237716674805e-01 -8.0442219972610474e-02</leafValues></_></weakClassifiers></_>
    <!-- stage 8 -->
    <_>
      <maxWeakCount>44</maxWeakCount>
      <stageThreshold>-7.9995661973953247e-01</stageThreshold>
      <weakClassifiers>
        <_>
          <internalNodes>
            0 -1 283 2.8140909969806671e-02</internalNodes>
          <leafValues>
            1.3713949918746948e-01 7.2502934932708740e-01</leafValues></_>
        <_>
          <internalNodes>
            0 -1 438 -2.2312761284410954e-03</internalNodes>
          <leafValues>
            4.0887784957885742e-01 -1.5167076885700226e-01</leafValues></_>
        <_>
          <internalNodes>
            0 -1 79 1.5397591050714254e-03</internalNodes>
          <leafValues>
            -1.4853905141353607e-01 4.2996320128440857e-01</leafValues></_>
        <_>
          <internalNodes>
            0 -1 201 3.2801769673824310e-02</internalNodes>
          <leafValues>
            2.7723504230380058e-02 -8.0103302001953125e-01</leafValues></_>
        <_>
          <internalNodes>
            0 -1 218 3.6756375338882208e-03</internalNodes>
          <leafValues>
            -1.2619592249393463e-01 3.4581872820854187e-01</leafValues></_>
        <_>
          <internalNodes>
            0 -1 313 -4.7580031678080559e-03</internalNodes>
          <leafValues>
            -4.8836663365364075e-01 7.4984490871429443e-02</leafValues></_>
        <_>
          <internalNodes>
            0 -1 383 -1.3967187842354178e-03</internalNodes>
          <leafValues>
            3.3215227723121643e-01 -1.1461505293846130e-01</leafValues></_>
        <_>
          <internalNodes>
            0 -1 357 1.1874698102474213e-03</internalNodes>
          <leafValues>
            -1.7004466056823730e-01 2.1557772159576416e-01</leafValues></_>
        <_>
          <internalNodes>
            0 -1 67 -8.8706286624073982e-04</internalNodes>
          <leafValues>
            2.4586446583271027e-01 -1.4921678602695465e-01</leafValues></_>
        <_>
          <internalNodes>
            0 -1 410 6.8486449308693409e-03</internalNodes>
          <leafValues>
            6.2159609049558640e-02 -6.0874795913696289e-01</leafValues></_>
        <_>
          <internalNodes>
            0 -1 406 -1.7177272588014603e-02</internalNodes>
          <leafValues>
            -5.7287007570266724e-01 5.4566282778978348e-02</leafValues></_>
        <_>
          <internalNodes>
            0 -1 290 -4.1418574750423431e-02</internalNodes>
          <leafValues>
            -5.5531829595565796e-01 5.0469666719436646e-02</leafValues></_>
        <_>
          <internalNodes>
            0 -1 422 -4.1635707020759583e-03</internalNodes>
          <leafValues>
            3.2692903280258179e-01 -9.7885161638259888e-02</leafValues></_>
        <_>
          <internalNodes>
            0 -1 462 2.2610931191593409e-03</internalNodes>
          <leafValues>
            6.3313521444797516e-02 -5.7904279232025146e-01</leafValues></_>
        <_>
          <internalNodes>
            0 -1 261 6.2588658183813095e-03</internalNodes>
          <leafValues>
            8.2460418343544006e-02 -3.5979810357093811e-01</leafValues></_>
        <_>
          <internalNodes>
            0 -1 4 -9.0455973986536264e-04</internalNodes>
          <leafValues>
            -3.4364274144172668e-01 9.3869522213935852e-02</leafValues></_>
        <_>
          <internalNodes>
            0 -1 105 1.1055276729166508e-02</internalNodes>
          <leafValues>
            4.3310973793268204e-02 -6.5772885084152222e-01</leafValues></_>
        <_>
          <internalNodes>
            0 -1 320 1.8698971252888441e-03</internalNodes>
          <leafValues>
            5.1843024790287018e-02 -5.1457220315933228e-01</leafValues></_>
        <_>
          <internalNodes>
            0 -1 247 -8.9182313531637192e-03</internalNodes>
          <leafValues>
            3.6849212646484375e-01 -8.3788305521011353e-02</leafValues></_>
        <_>
          <internalNodes>
            0 -1 286 -4.4827972305938601e-04</internalNodes>
          <leafValues>
            2.7497422695159912e-01 -1.0936048626899719e-01</leafValues></_>
        <_>
          <internalNodes>
            0 -1 222 1.5346696600317955e-02</internalNodes>
          <leafValues>
            -1.9194293022155762e-01 1.5464334189891815e-01</leafValues></_>
        <_>
          <internalNodes>
            0 -1 402 1.8582675838842988e-03</internalNodes>
          <leafValues>
            5.2724968641996384e-02 -5.2025026082992554e-01</leafValues></_>
        <_>
          <internalNodes>
            0 -1 243 -3.7030123174190521e-02</internalNodes>
          <leafValues>
            -6.9000631570816040e-01 4.3486002832651138e-02</leafValues></_>
        <_>
          <internalNodes>
            0 -1 97 4.5150995254516602e-02</internalNodes>
          <leafValues>
            6.2629252672195435e-02 -4.4859057664871216e-01</leafValues></_>
        <_>
          <internalNodes>
            0 -1 24 -3.9693005383014679e-03</internalNodes>
          <leafValues>
            -3.4436619281768799e-01 8.3987459540367126e-02</leafValues></_>
        <_>
          <internalNodes>
            0 -1 171 1.3990412699058652e-03</internalNodes>
          <leafValues>
            -1.3634063303470612e-01 2.0920599997043610e-01</leafValues></_>
        <_>
          <internalNodes>
            0 -1 404 1.5985493082553148e-03</internalNodes>
          <leafValues>
            -1.2916168570518494e-01 2.3256921768188477e-01</leafValues></_>
        <_>
          <internalNodes>
            0 -1 384 4.3283239938318729e-03</internalNodes>
          <leafValues>
            -1.0479305684566498e-01 3.4943217039108276e-01</leafValues></_>
        <_>
          <internalNodes>
            0 -1 436 3.2451029401272535e-03</internalNodes>
          <leafValues>
            5.8350946754217148e-02 -5.2774703502655029e-01</leafValues></_>
        <_>
          <internalNodes>
            0 -1 258 2.7880420908331871e-02</internalNodes>
          <leafValues>
            3.8760349154472351e-02 -7.0279920101165771e-01</leafValues></_>
        <_>
          <internalNodes>
            0 -1 389 1.3118454953655601e-03</internalNodes>
          <leafValues>
            -1.1242111027240753e-01 2.7705284953117371e-01</leafValues></_>
        <_>
          <internalNodes>
            0 -1 13 -6.0091279447078705e-03</internalNodes>
          <leafValues>
            -3.4059301018714905e-01 9.3721628189086914e-02</leafValues></_>
        <_>
          <internalNodes>
            0 -1 409 5.3311455994844437e-03</internalNodes>
          <leafValues>
            -7.3196813464164734e-02 4.3317189812660217e-01</leafValues></_>
        <_>
          <internalNodes>
            0 -1 109 -4.8930908087641001e-04</internalNodes>
          <leafValues>
            2.1682374179363251e-01 -1.3689215481281281e-01</leafValues></_>
        <_>
          <internalNodes>
            0 -1 83 -4.9738604575395584e-03</internalNodes>
          <leafValues>
            3.4997072815895081e-01 -8.0015175044536591e-02</leafValues></_>
        <_>
          <internalNodes>
            0 -1 463 2.0507145673036575e-03</internalNodes>
          <leafValues>
            6.0963757336139679e-02 -5.2812671661376953e-01</leafValues></_>
        <_>
          <internalNodes>
            0 -1 311 -4.1598868556320667e-03</internalNodes>
          <leafValues>
            2.2437956929206848e-01 -1.3817703723907471e-01</leafValues></_>
        <_>
          <internalNodes>
            0 -1 225 -8.0872736871242523e-03</internalNodes>
          <leafValues>
            -3.9956077933311462e-01 7.5532853603363037e-02</leafValues></_>
        <_>
          <internalNodes>
            0 -1 431 2.8764158487319946e-03</internalNodes>
          <leafValues>
            8.0226987600326538e-02 -3.5308617353439331e-01</leafValues></_>
        <_>
          <internalNodes>
            0 -1 390 1.1392439482733607e-03</internalNodes>
          <leafValues>
            -1.5572606027126312e-01 2.1071377396583557e-01</leafValues></_>
        <_>
          <internalNodes>
            0 -1 133 -9.4689941033720970e-04</internalNodes>
          <leafValues>
            2.4127337336540222e-01 -1.1319348961114883e-01</leafValues></_>
        <_>
          <internalNodes>
            0 -1 150 -1.2441580183804035e-02</internalNodes>
          <leafValues>
            -5.1431810855865479e-01 6.1569120734930038e-02</leafValues></_>
        <_>
          <internalNodes>
            0 -1 59 -5.2963029593229294e-03</internalNodes>
          <leafValues>
            -5.9656149148941040e-01 4.0821485221385956e-02</leafValues></_>
        <_>
          <internalNodes>
            0 -1 358 -1.4534531161189079e-02</internalNodes>
          <leafValues>
            -6.9750416278839111e-01 3.5377707332372665e-02</leafValues></_></weakClassifiers></_>
    <!-- stage 9 -->
    <_>
      <maxWeakCount>46</maxWeakCount>
      <stageThreshold>-7.0767730474472046e-01</stageThreshold>
      <weakClassifiers>
        <_>
          <internalNodes>
            0 -1 257 7.7632693573832512e-03</internalNodes>
          <leafValues>
            4.3678160756826401e-02 6.3694781064987183e-01</leafValues></_>
        <_>
          <internalNodes>
            0 -1 250 5.0187416374683380e-02</internalNodes>
          <leafValues>
            -9.9425859749317169e-02 5.2641588449478149e-01</leafValues></_>
        <_>
          <internalNodes>
            0 -1 337 -1.4274541754275560e-03</internalNodes>
          <leafValues>
            4.7366195917129517e-01 -1.0897878557443619e-01</leafValues></_>
        <_>
          <internalNodes>
            0 -1 81 5.9211896732449532e-03</internalNodes>
          <leafValues>
            -1.0409790277481079e-01 4.2771896719932556e-01</leafValues></_>
        <_>
          <internalNodes>
            0 -1 241 -9.1839842498302460e-02</internalNodes>
          <leafValues>
            -5.0242501497268677e-01 5.2961826324462891e-02</leafValues></_>
        <_>
          <internalNodes>
            0 -1 66 3.2293826341629028e-02</internalNodes>
          <leafValues>
            4.9595434218645096e-02 -6.4997893571853638e-01</leafValues></_>
        <_>
          <internalNodes>
            0 -1 302 -7.0948759093880653e-04</internalNodes>
          <leafValues>
            7.7348507940769196e-02 -4.5558473467826843e-01</leafValues></_>
        <_>
          <internalNodes>
            0 -1 350 -1.8719621002674103e-02</internalNodes>
          <leafValues>
            -4.9926656484603882e-01 7.0626579225063324e-02</leafValues></_>
        <_>
          <internalNodes>
            0 -1 388 -4.7755530104041100e-03</internalNodes>
          <leafValues>
            4.4877269864082336e-01 -7.2972185909748077e-02</leafValues></_>
        <_>
          <internalNodes>
            0 -1 384 6.5786503255367279e-03</internalNodes>
          <leafValues>
            -9.3471422791481018e-02 3.7977316975593567e-01</leafValues></_>
        <_>
          <internalNodes>
            0 -1 372 -1.2816989328712225e-03</internalNodes>
          <leafValues>
            -4.8954075574874878e-01 6.3434571027755737e-02</leafValues></_>
        <_>
          <internalNodes>
            0 -1 33 -1.0479877237230539e-03</internalNodes>
          <leafValues>
            -2.6097288727760315e-01 1.3478721678256989e-01</leafValues></_>
        <_>
          <internalNodes>
            0 -1 417 5.5725821293890476e-03</internalNodes>
          <leafValues>
            4.8185903578996658e-02 -6.8350434303283691e-01</leafValues></_>
        <_>
          <internalNodes>
            0 -1 382 -9.6065795514732599e-04</internalNodes>
          <leafValues>
            2.2382053732872009e-01 -1.4611205458641052e-01</leafValues></_>
        <_>
          <internalNodes>
            0 -1 139 1.6410294920206070e-02</internalNodes>
          <leafValues>
            6.0412216931581497e-02 -5.4471993446350098e-01</leafValues></_>
        <_>
          <internalNodes>
            0 -1 245 -1.9685593433678150e-03</internalNodes>
          <leafValues>
            2.8690442442893982e-01 -1.1631306260824203e-01</leafValues></_>
        <_>
          <internalNodes>
            0 -1 52 -3.2905507832765579e-02</internalNodes>
          <leafValues>
            -5.9067255258560181e-01 6.1853267252445221e-02</leafValues></_>
        <_>
          <internalNodes>
            0 -1 145 7.5947045115754008e-04</internalNodes>
          <leafValues>
            -1.3168853521347046e-01 2.6488915085792542e-01</leafValues></_>
        <_>
          <internalNodes>
            0 -1 314 -1.8109150230884552e-02</internalNodes>
          <leafValues>
            -4.8026195168495178e-01 6.9146841764450073e-02</leafValues></_>
        <_>
          <internalNodes>
            0 -1 190 -2.3687835782766342e-03</internalNodes>
          <leafValues>
            2.1495692431926727e-01 -1.3849741220474243e-01</leafValues></_>
        <_>
          <internalNodes>
            0 -1 114 -1.2342352420091629e-02</internalNodes>
          <leafValues>
            -6.0403227806091309e-01 5.0296824425458908e-02</leafValues></_>
        <_>
          <internalNodes>
            0 -1 316 -3.8112439215183258e-03</internalNodes>
          <leafValues>
            -3.3738893270492554e-01 8.5020594298839569e-02</leafValues></_>
        <_>
          <internalNodes>
            0 -1 214 -1.6733901575207710e-03</internalNodes>
          <leafValues>
            1.6955369710922241e-01 -1.8039470911026001e-01</leafValues></_>
        <_>
          <internalNodes>
            0 -1 207 -1.1394493281841278e-02</internalNodes>
          <leafValues>
            -3.2781288027763367e-01 1.0430042445659637e-01</leafValues></_>
        <_>
          <internalNodes>
            0 -1 213 -1.4865063130855560e-02</internalNodes>
          <leafValues>
            -4.8286145925521851e-01 6.3889726996421814e-02</leafValues></_>
        <_>
          <internalNodes>
            0 -1 31 -2.8777763247489929e-02</internalNodes>
          <leafValues>
            -3.5413363575935364e-01 8.1980019807815552e-02</leafValues></_>
        <_>
          <internalNodes>
            0 -1 334 1.0545526165515184e-03</internalNodes>
          <leafValues>
            -9.7427390515804291e-02 2.9322040081024170e-01</leafValues></_>
        <_>
          <internalNodes>
            0 -1 356 -1.3350598746910691e-03</internalNodes>
          <leafValues>
            2.9725462198257446e-01 -1.2181929498910904e-01</leafValues></_>
        <_>
          <internalNodes>
            0 -1 298 -1.9057000754401088e-03</internalNodes>
          <leafValues>
            -7.8832453489303589e-01 4.2537756264209747e-02</leafValues></_>
        <_>
          <internalNodes>
            0 -1 284 1.0054939426481724e-02</internalNodes>
          <leafValues>
            5.2696984261274338e-02 -4.8994538187980652e-01</leafValues></_>
        <_>
          <internalNodes>
            0 -1 35 1.1295445263385773e-02</internalNodes>
          <leafValues>
            -1.2429917603731155e-01 2.4093374609947205e-01</leafValues></_>
        <_>
          <internalNodes>
            0 -1 332 -1.8828003667294979e-03</internalNodes>
          <leafValues>
            2.3941263556480408e-01 -1.1693099141120911e-01</leafValues></_>
        <_>
          <internalNodes>
            0 -1 361 2.0873446017503738e-02</internalNodes>
          <leafValues>
            3.7494007498025894e-02 -7.2202754020690918e-01</leafValues></_>
        <_>
          <internalNodes>
            0 -1 461 2.3920577950775623e-03</internalNodes>
          <leafValues>
            6.1103936284780502e-02 -3.9226618409156799e-01</leafValues></_>
        <_>
          <internalNodes>
            0 -1 425 -4.8041706904768944e-03</internalNodes>
          <leafValues>
            2.2714036703109741e-01 -1.1995768547058105e-01</leafValues></_>
        <_>
          <internalNodes>
            0 -1 303 2.5997590273618698e-02</internalNodes>
          <leafValues>
            4.5575659722089767e-02 -6.0683703422546387e-01</leafValues></_>
        <_>
          <internalNodes>
            0 -1 78 -9.5612332224845886e-02</internalNodes>
          <leafValues>
            -6.3703566789627075e-01 4.1718788444995880e-02</leafValues></_>
        <_>
          <internalNodes>
            0 -1 411 5.9905131347477436e-03</internalNodes>
          <leafValues>
            3.2457042485475540e-02 -6.8131715059280396e-01</leafValues></_>
        <_>
          <internalNodes>
            0 -1 430 1.1742433998733759e-03</internalNodes>
          <leafValues>
            -9.9565699696540833e-02 2.7994632720947266e-01</leafValues></_>
        <_>
          <internalNodes>
            0 -1 429 -2.5349881034344435e-03</internalNodes>
          <leafValues>
            3.0583697557449341e-01 -9.0036980807781219e-02</leafValues></_>
        <_>
          <internalNodes>
            0 -1 308 4.9612680450081825e-03</internalNodes>
          <leafValues>
            1.0691062361001968e-01 -2.4705660343170166e-01</leafValues></_>
        <_>
          <internalNodes>
            0 -1 27 8.9314714074134827e-02</internalNodes>
          <leafValues>
            -4.6269170939922333e-02 6.0331076383590698e-01</leafValues></_>
        <_>
          <internalNodes>
            0 -1 144 -2.7049430646002293e-03</internalNodes>
          <leafValues>
            2.0947724580764771e-01 -1.3366794586181641e-01</leafValues></_>
        <_>
          <internalNodes>
            0 -1 231 -7.4530625715851784e-04</internalNodes>
          <leafValues>
            2.2604949772357941e-01 -1.1758717149496078e-01</leafValues></_>
        <_>
          <internalNodes>
            0 -1 229 -6.9950823672115803e-04</internalNodes>
          <leafValues>
            2.0002064108848572e-01 -1.3752391934394836e-01</leafValues></_>
        <_>
          <internalNodes>
            0 -1 129 -8.3056323230266571e-02</internalNodes>
          <leafValues>
            -3.9602014422416687e-01 8.1817887723445892e-02</leafValues></_></weakClassifiers></_>
    <!-- stage 10 -->
    <_>
      <maxWeakCount>55</maxWeakCount>
      <stageThreshold>-7.8377908468246460e-01</stageThreshold>
      <weakClassifiers>
        <_>
          <internalNodes>
            0 -1 281 2.9365386813879013e-02</internalNodes>
          <leafValues>
            8.7833441793918610e-02 7.0582425594329834e-01</leafValues></_>
        <_>
          <internalNodes>
            0 -1 75 4.2490065097808838e-03</internalNodes>
          <leafValues>
            -9.0926863253116608e-02 4.2183578014373779e-01</leafValues></_>
        <_>
          <internalNodes>
            0 -1 415 1.0202918201684952e-02</internalNodes>
          <leafValues>
            -7.5438015162944794e-02 6.1005765199661255e-01</leafValues></_>
        <_>
          <internalNodes>
            0 -1 384 6.5067615360021591e-03</internalNodes>
          <leafValues>
            -1.4409519731998444e-01 3.9611116051673889e-01</leafValues></_>
        <_>
          <internalNodes>
            0 -1 346 -2.9239123687148094e-03</internalNodes>
          <leafValues>
            -4.3603348731994629e-01 8.7796889245510101e-02</leafValues></_>
        <_>
          <internalNodes>
            0 -1 169 -1.7757257446646690e-03</internalNodes>
          <leafValues>
            -5.1798963546752930e-01 5.9169244021177292e-02</leafValues></_>
        <_>
          <internalNodes>
            0 -1 197 3.2603233121335506e-03</internalNodes>
          <leafValues>
            4.4199582189321518e-02 -6.7619937658309937e-01</leafValues></_>
        <_>
          <internalNodes>
            0 -1 330 1.0892469435930252e-02</internalNodes>
          <leafValues>
            4.6093504875898361e-02 -6.4938986301422119e-01</leafValues></_>
        <_>
          <internalNodes>
            0 -1 377 3.2545454800128937e-02</internalNodes>
          <leafValues>
            4.3102923780679703e-02 -7.1524059772491455e-01</leafValues></_>
        <_>
          <internalNodes>
            0 -1 356 7.4393036775290966e-03</internalNodes>
          <leafValues>
            -6.6325515508651733e-02 5.3513216972351074e-01</leafValues></_>
        <_>
          <internalNodes>
            0 -1 50 -2.1532543469220400e-03</internalNodes>
          <leafValues>
            -4.8295292258262634e-01 6.2279697507619858e-02</leafValues></_>
        <_>
          <internalNodes>
            0 -1 54 1.8099997192621231e-02</internalNodes>
          <leafValues>
            5.2383095026016235e-02 -5.5629748106002808e-01</leafValues></_>
        <_>
          <internalNodes>
            0 -1 189 6.2132077291607857e-03</internalNodes>
          <leafValues>
            -7.6800264418125153e-02 4.3704956769943237e-01</leafValues></_>
        <_>
          <internalNodes>
            0 -1 220 4.4328318908810616e-03</internalNodes>
          <leafValues>
            9.1277584433555603e-02 -3.5693767666816711e-01</leafValues></_>
        <_>
          <internalNodes>
            0 -1 37 8.4749597590416670e-04</internalNodes>
          <leafValues>
            9.1209374368190765e-02 -3.2873713970184326e-01</leafValues></_>
        <_>
          <internalNodes>
            0 -1 446 -1.9473934080451727e-03</internalNodes>
          <leafValues>
            -4.6399682760238647e-01 5.8122772723436356e-02</leafValues></_>
        <_>
          <internalNodes>
            0 -1 369 -8.8730338029563427e-04</internalNodes>
          <leafValues>
            2.2668191790580750e-01 -1.3124158978462219e-01</leafValues></_>
        <_>
          <internalNodes>
            0 -1 73 -2.2256197407841682e-03</internalNodes>
          <leafValues>
            2.6768359541893005e-01 -1.1549682915210724e-01</leafValues></_>
        <_>
          <internalNodes>
            0 -1 272 3.7238826043903828e-03</internalNodes>
          <leafValues>
            -1.0766210407018661e-01 2.4160633981227875e-01</leafValues></_>
        <_>
          <internalNodes>
            0 -1 228 1.5237600542604923e-02</internalNodes>
          <leafValues>
            5.6909225881099701e-02 -5.1365143060684204e-01</leafValues></_>
        <_>
          <internalNodes>
            0 -1 309 -1.7662344034761190e-03</internalNodes>
          <leafValues>
            2.8200015425682068e-01 -1.0862328112125397e-01</leafValues></_>
        <_>
          <internalNodes>
            0 -1 44 -1.5756204724311829e-02</internalNodes>
          <leafValues>
            1.3964785635471344e-01 -1.8037964403629303e-01</leafValues></_>
        <_>
          <internalNodes>
            0 -1 172 1.5585996210575104e-02</internalNodes>
          <leafValues>
            -8.8904738426208496e-02 3.5778474807739258e-01</leafValues></_>
        <_>
          <internalNodes>
            0 -1 88 2.2226781584322453e-03</internalNodes>
          <leafValues>
            7.3393695056438446e-02 -4.0761721134185791e-01</leafValues></_>
        <_>
          <internalNodes>
            0 -1 101 -3.2388113439083099e-02</internalNodes>
          <leafValues>
            -7.6575362682342529e-01 3.0288949608802795e-02</leafValues></_>
        <_>
          <internalNodes>
            0 -1 449 -1.5922773163765669e-03</internalNodes>
          <leafValues>
            -4.2345532774925232e-01 5.0611231476068497e-02</leafValues></_>
        <_>
          <internalNodes>
            0 -1 448 -3.0358943622559309e-03</internalNodes>
          <leafValues>
            -4.5619714260101318e-01 5.5208180099725723e-02</leafValues></_>
        <_>
          <internalNodes>
            0 -1 409 3.6663920618593693e-03</internalNodes>
          <leafValues>
            -8.0536313354969025e-02 3.1977179646492004e-01</leafValues></_>
        <_>
          <internalNodes>
            0 -1 393 -7.9039525007829070e-04</internalNodes>
          <leafValues>
            2.2059038281440735e-01 -1.1829260736703873e-01</leafValues></_>
        <_>
          <internalNodes>
            0 -1 47 1.2821489945054054e-02</internalNodes>
          <leafValues>
            -1.7636428773403168e-01 1.3642443716526031e-01</leafValues></_>
        <_>
          <internalNodes>
            0 -1 22 2.0902021788060665e-03</internalNodes>
          <leafValues>
            6.7825250327587128e-02 -3.6555066704750061e-01</leafValues></_>
        <_>
          <internalNodes>
            0 -1 74 -3.1045686919242144e-03</internalNodes>
          <leafValues>
            2.6993149518966675e-01 -9.2244371771812439e-02</leafValues></_>
        <_>
          <internalNodes>
            0 -1 398 8.8664954528212547e-03</internalNodes>
          <leafValues>
            4.5995146036148071e-02 -4.8289170861244202e-01</leafValues></_>
        <_>
          <internalNodes>
            0 -1 8 3.7568847183138132e-03</internalNodes>
          <leafValues>
            -1.1420144885778427e-01 2.0482245087623596e-01</leafValues></_>
        <_>
          <internalNodes>
            0 -1 340 -5.7591409422457218e-03</internalNodes>
          <leafValues>
            3.2134705781936646e-01 -7.4169069528579712e-02</leafValues></_>
        <_>
          <internalNodes>
            0 -1 140 1.9425330683588982e-03</internalNodes>
          <leafValues>
            -1.3429486751556396e-01 1.9979487359523773e-01</leafValues></_>
        <_>
          <internalNodes>
            0 -1 373 -2.6447777636349201e-03</internalNodes>
          <leafValues>
            -3.8013812899589539e-01 6.9852910935878754e-02</leafValues></_>
        <_>
          <internalNodes>
            0 -1 354 3.6796366330236197e-03</internalNodes>
          <leafValues>
            3.3528655767440796e-02 -6.9465225934982300e-01</leafValues></_>
        <_>
          <internalNodes>
            0 -1 405 5.6262090802192688e-03</internalNodes>
          <leafValues>
            -8.5880123078823090e-02 3.2380831241607666e-01</leafValues></_>
        <_>
          <internalNodes>
            0 -1 416 2.3698937147855759e-03</internalNodes>
          <leafValues>
            -1.0595320910215378e-01 2.3630850017070770e-01</leafValues></_>
        <_>
          <internalNodes>
            0 -1 100 5.8869225904345512e-03</internalNodes>
          <leafValues>
            4.8041231930255890e-02 -5.4969608783721924e-01</leafValues></_>
        <_>
          <internalNodes>
            0 -1 324 -1.8231481080874801e-03</internalNodes>
          <leafValues>
            -4.1767495870590210e-01 5.4167926311492920e-02</leafValues></_>
        <_>
          <internalNodes>
            0 -1 224 -9.0050026774406433e-02</internalNodes>
          <leafValues>
            -5.3325420618057251e-01 4.3840460479259491e-02</leafValues></_>
        <_>
          <internalNodes>
            0 -1 442 -9.8029116634279490e-04</internalNodes>
          <leafValues>
            2.0214658975601196e-01 -1.1388973146677017e-01</leafValues></_>
        <_>
          <internalNodes>
            0 -1 303 -3.9504721644334495e-04</internalNodes>
          <leafValues>
            1.0282991081476212e-01 -2.2960767149925232e-01</leafValues></_>
        <_>
          <internalNodes>
            0 -1 271 -5.2684210240840912e-03</internalNodes>
          <leafValues>
            -3.3815985918045044e-01 7.8296311199665070e-02</leafValues></_>
        <_>
          <internalNodes>
            0 -1 262 4.9174167215824127e-03</internalNodes>
          <leafValues>
            -4.3397974222898483e-02 6.5400886535644531e-01</leafValues></_>
        <_>
          <internalNodes>
            0 -1 173 -1.2197261676192284e-03</internalNodes>
          <leafValues>
            2.1591302752494812e-01 -1.1227440834045410e-01</leafValues></_>
        <_>
          <internalNodes>
            0 -1 339 2.2688438184559345e-03</internalNodes>
          <leafValues>
            -1.0206465423107147e-01 2.3248830437660217e-01</leafValues></_>
        <_>
          <internalNodes>
            0 -1 360 9.2057939618825912e-03</internalNodes>
          <leafValues>
            6.8526208400726318e-02 -3.8049909472465515e-01</leafValues></_>
        <_>
          <internalNodes>
            0 -1 277 6.7507959902286530e-02</internalNodes>
          <leafValues>
            -5.0635147839784622e-02 4.8159733414649963e-01</leafValues></_>
        <_>
          <internalNodes>
            0 -1 323 -1.0259831324219704e-03</internalNodes>
          <leafValues>
            -2.8356158733367920e-01 9.3317762017250061e-02</leafValues></_>
        <_>
          <internalNodes>
            0 -1 203 -2.9790056869387627e-03</internalNodes>
          <leafValues>
            2.1146492660045624e-01 -1.1139748990535736e-01</leafValues></_>
        <_>
          <internalNodes>
            0 -1 202 3.9515215903520584e-03</internalNodes>
          <leafValues>
            -6.5836071968078613e-02 3.7720391154289246e-01</leafValues></_>
        <_>
          <internalNodes>
            0 -1 175 -5.3617944940924644e-03</internalNodes>
          <leafValues>
            2.4415092170238495e-01 -9.9095188081264496e-02</leafValues></_></weakClassifiers></_>
    <!-- stage 11 -->
    <_>
      <maxWeakCount>58</maxWeakCount>
      <stageThreshold>-7.2795897722244263e-01</stageThreshold>
      <weakClassifiers>
        <_>
          <internalNodes>
            0 -1 184 -1.1685828678309917e-02</internalNodes>
          <leafValues>
            5.8029687404632568e-01 -9.3632955104112625e-03</leafValues></_>
        <_>
          <internalNodes>
            0 -1 298 4.9534013669472188e-05</internalNodes>
          <leafValues>
            -4.8887667059898376e-01 1.4246377348899841e-01</leafValues></_>
        <_>
          <internalNodes>
            0 -1 419 -1.4750681817531586e-02</internalNodes>
          <leafValues>
            4.3066695332527161e-01 -1.2274482846260071e-01</leafValues></_>
        <_>
          <internalNodes>
            0 -1 218 7.7213514596223831e-03</internalNodes>
          <leafValues>
            -5.3994603455066681e-02 6.2967944145202637e-01</leafValues></_>
        <_>
          <internalNodes>
            0 -1 377 2.3512531071901321e-02</internalNodes>
          <leafValues>
            4.3716911226511002e-02 -4.9392569065093994e-01</leafValues></_>
        <_>
          <internalNodes>
            0 -1 176 -1.4479115605354309e-02</internalNodes>
          <leafValues>
            -3.1710195541381836e-01 9.2200294137001038e-02</leafValues></_>
        <_>
          <internalNodes>
            0 -1 160 -2.6187160983681679e-03</internalNodes>
          <leafValues>
            2.8169903159141541e-01 -1.0990399122238159e-01</leafValues></_>
        <_>
          <internalNodes>
            0 -1 163 -2.6842234656214714e-03</internalNodes>
          <leafValues>
            -3.9966195821762085e-01 6.7971706390380859e-02</leafValues></_>
        <_>
          <internalNodes>
            0 -1 321 1.7403289675712585e-02</internalNodes>
          <leafValues>
            5.3725831210613251e-02 -5.3162688016891479e-01</leafValues></_>
        <_>
          <internalNodes>
            0 -1 28 -1.3106989208608866e-03</internalNodes>
          <leafValues>
            -2.7004772424697876e-01 1.0904631763696671e-01</leafValues></_>
        <_>
          <internalNodes>
            0 -1 82 -1.0247046593576670e-03</internalNodes>
          <leafValues>
            2.1108995378017426e-01 -1.2857908010482788e-01</leafValues></_>
        <_>
          <internalNodes>
            0 -1 68 5.9332088567316532e-03</internalNodes>
          <leafValues>
            -7.2402991354465485e-02 3.5249876976013184e-01</leafValues></_>
        <_>
          <internalNodes>
            0 -1 322 -6.7957298597320914e-04</internalNodes>
          <leafValues>
            -3.2634383440017700e-01 7.7395588159561157e-02</leafValues></_>
        <_>
          <internalNodes>
            0 -1 275 3.6478829570114613e-03</internalNodes>
          <leafValues>
            -9.2755563557147980e-02 2.9533821344375610e-01</leafValues></_>
        <_>
          <internalNodes>
            0 -1 343 -2.1947314962744713e-03</internalNodes>
          <leafValues>
            2.9767411947250366e-01 -1.0512562096118927e-01</leafValues></_>
        <_>
          <internalNodes>
            0 -1 179 8.5211917757987976e-03</internalNodes>
          <leafValues>
            4.8944380134344101e-02 -5.3836762905120850e-01</leafValues></_>
        <_>
          <internalNodes>
            0 -1 142 -2.0865412428975105e-02</internalNodes>
          <leafValues>
            -5.7080888748168945e-01 3.8846123963594437e-02</leafValues></_>
        <_>
          <internalNodes>
            0 -1 211 -1.0608645156025887e-02</internalNodes>
          <leafValues>
            3.3256077766418457e-01 -7.6218113303184509e-02</leafValues></_>
        <_>
          <internalNodes>
            0 -1 460 -8.0077280290424824e-04</internalNodes>
          <leafValues>
            -2.3810328543186188e-01 9.6848540008068085e-02</leafValues></_>
        <_>
          <internalNodes>
            0 -1 188 1.8170345574617386e-03</internalNodes>
          <leafValues>
            -8.4153592586517334e-02 2.8212651610374451e-01</leafValues></_>
        <_>
          <internalNodes>
            0 -1 270 1.8236220348626375e-03</internalNodes>
          <leafValues>
            5.7836975902318954e-02 -4.2390355467796326e-01</leafValues></_>
        <_>
          <internalNodes>
            0 -1 379 -1.4181479346007109e-03</internalNodes>
          <leafValues>
            2.2432275116443634e-01 -1.0983874648809433e-01</leafValues></_>
        <_>
          <internalNodes>
            0 -1 375 1.2275399640202522e-03</internalNodes>
          <leafValues>
            -1.1654867976903915e-01 2.3988942801952362e-01</leafValues></_>
        <_>
          <internalNodes>
            0 -1 380 -1.8620588816702366e-03</internalNodes>
          <leafValues>
            4.1688555479049683e-01 -7.0330932736396790e-02</leafValues></_>
        <_>
          <internalNodes>
            0 -1 239 1.2084681075066328e-03</internalNodes>
          <leafValues>
            9.7171358764171600e-02 -2.5947597622871399e-01</leafValues></_>
        <_>
          <internalNodes>
            0 -1 112 7.0687336847186089e-03</internalNodes>
          <leafValues>
            3.6008249968290329e-02 -6.8046224117279053e-01</leafValues></_>
        <_>
          <internalNodes>
            0 -1 99 -1.8555968999862671e-03</internalNodes>
          <leafValues>
            1.9089253246784210e-01 -1.2762524187564850e-01</leafValues></_>
        <_>
          <internalNodes>
            0 -1 95 1.5179715119302273e-02</internalNodes>
          <leafValues>
            2.6653375476598740e-02 -8.7179803848266602e-01</leafValues></_>
        <_>
          <internalNodes>
            0 -1 215 -7.8206509351730347e-04</internalNodes>
          <leafValues>
            1.9280402362346649e-01 -1.3134959340095520e-01</leafValues></_>
        <_>
          <internalNodes>
            0 -1 451 -3.2060313969850540e-03</internalNodes>
          <leafValues>
            -2.6637682318687439e-01 8.1486031413078308e-02</leafValues></_>
        <_>
          <internalNodes>
            0 -1 333 -4.3990314006805420e-03</internalNodes>
          <leafValues>
            5.6392103433609009e-01 -3.6115992814302444e-02</leafValues></_>
        <_>
          <internalNodes>
            0 -1 87 4.9384718295186758e-04</internalNodes>
          <leafValues>
            9.6739090979099274e-02 -2.2495870292186737e-01</leafValues></_>
        <_>
          <internalNodes>
            0 -1 96 -5.6394506245851517e-03</internalNodes>
          <leafValues>
            -2.0684359967708588e-01 1.0893991589546204e-01</leafValues></_>
        <_>
          <internalNodes>
            0 -1 102 2.0483486354351044e-02</internalNodes>
          <leafValues>
            6.2814548611640930e-02 -4.4776511192321777e-01</leafValues></_>
        <_>
          <internalNodes>
            0 -1 7 3.5142386332154274e-03</internalNodes>
          <leafValues>
            -1.8988022208213806e-01 1.3415914773941040e-01</leafValues></_>
        <_>
          <internalNodes>
            0 -1 182 -9.8830019123852253e-04</internalNodes>
          <leafValues>
            2.1458522975444794e-01 -1.2086429446935654e-01</leafValues></_>
        <_>
          <internalNodes>
            0 -1 23 -1.0188994929194450e-03</internalNodes>
          <leafValues>
            -3.2046929001808167e-01 7.2987772524356842e-02</leafValues></_>
        <_>
          <internalNodes>
            0 -1 39 -2.5027927011251450e-02</internalNodes>
          <leafValues>
            5.8116871118545532e-01 -4.1128054261207581e-02</leafValues></_>
        <_>
          <internalNodes>
            0 -1 356 -1.3158634537830949e-03</internalNodes>
          <leafValues>
            2.4126450717449188e-01 -8.7493337690830231e-02</leafValues></_>
        <_>
          <internalNodes>
            0 -1 394 -3.1967426184564829e-03</internalNodes>
          <leafValues>
            2.4588726460933685e-01 -9.9450349807739258e-02</leafValues></_>
        <_>
          <internalNodes>
            0 -1 399 -2.3373775184154510e-03</internalNodes>
          <leafValues>
            -2.5189283490180969e-01 9.4487182796001434e-02</leafValues></_>
        <_>
          <internalNodes>
            0 -1 103 3.8942687679082155e-03</internalNodes>
          <leafValues>
            -7.6016753911972046e-02 3.2661414146423340e-01</leafValues></_>
        <_>
          <internalNodes>
            0 -1 306 1.8146161455661058e-03</internalNodes>
          <leafValues>
            4.0209218859672546e-02 -6.3161861896514893e-01</leafValues></_>
        <_>
          <internalNodes>
            0 -1 114 -1.8329581245779991e-02</internalNodes>
          <leafValues>
            -7.4334549903869629e-01 2.5890093296766281e-02</leafValues></_>
        <_>
          <internalNodes>
            0 -1 391 -2.3224051110446453e-03</internalNodes>
          <leafValues>
            2.3033611476421356e-01 -1.0566131025552750e-01</leafValues></_>
        <_>
          <internalNodes>
            0 -1 41 -2.2982124937698245e-04</internalNodes>
          <leafValues>
            -1.7994856834411621e-01 1.2939749658107758e-01</leafValues></_>
        <_>
          <internalNodes>
            0 -1 111 -4.2772744782269001e-03</internalNodes>
          <leafValues>
            -5.5543273687362671e-01 3.8012109696865082e-02</leafValues></_>
        <_>
          <internalNodes>
            0 -1 383 -7.1849371306598186e-04</internalNodes>
          <leafValues>
            1.9547227025032043e-01 -1.1997804790735245e-01</leafValues></_>
        <_>
          <internalNodes>
            0 -1 56 2.7649912983179092e-02</internalNodes>
          <leafValues>
            -4.8157181590795517e-02 4.7390973567962646e-01</leafValues></_>
        <_>
          <internalNodes>
            0 -1 1 -1.3226255774497986e-02</internalNodes>
          <leafValues>
            6.5305894613265991e-01 -2.9842050746083260e-02</leafValues></_>
        <_>
          <internalNodes>
            0 -1 135 1.7404172103852034e-03</internalNodes>
          <leafValues>
            -8.7552264332771301e-02 2.3586870729923248e-01</leafValues></_>
        <_>
          <internalNodes>
            0 -1 168 -6.3791184220463037e-04</internalNodes>
          <leafValues>
            2.1204699575901031e-01 -1.0795588791370392e-01</leafValues></_>
        <_>
          <internalNodes>
            0 -1 370 -3.7802159786224365e-03</internalNodes>
          <leafValues>
            -3.7471520900726318e-01 6.9479890167713165e-02</leafValues></_>
        <_>
          <internalNodes>
            0 -1 208 9.4323547091335058e-04</internalNodes>
          <leafValues>
            -1.0125144571065903e-01 2.2353728115558624e-01</leafValues></_>
        <_>
          <internalNodes>
            0 -1 166 3.3119106665253639e-03</internalNodes>
          <leafValues>
            5.9747405350208282e-02 -3.8951125741004944e-01</leafValues></_>
        <_>
          <internalNodes>
            0 -1 62 -7.1200966835021973e-02</internalNodes>
          <leafValues>
            4.8734802007675171e-01 -4.4336173683404922e-02</leafValues></_>
        <_>
          <internalNodes>
            0 -1 85 2.3242786526679993e-02</internalNodes>
          <leafValues>
            -4.9611818045377731e-02 4.1953733563423157e-01</leafValues></_>
        <_>
          <internalNodes>
            0 -1 260 -2.4997111409902573e-02</internalNodes>
          <leafValues>
            -3.0036422610282898e-01 7.5692504644393921e-02</leafValues></_></weakClassifiers></_>
    <!-- stage 12 -->
    <_>
      <maxWeakCount>61</maxWeakCount>
      <stageThreshold>-7.5598090887069702e-01</stageThreshold>
      <weakClassifiers>
        <_>
          <internalNodes>
            0 -1 253 5.5911475792527199e-03</internalNodes>
          <leafValues>
            6.1224490404129028e-02 5.8490568399429321e-01</leafValues></_>
        <_>
          <internalNodes>
            0 -1 218 5.0993086770176888e-03</internalNodes>
          <leafValues>
            -8.3268523216247559e-02 5.8496594429016113e-01</leafValues></_>
        <_>
          <internalNodes>
            0 -1 438 -2.7739959768950939e-03</internalNodes>
          <leafValues>
            3.1989973783493042e-01 -1.4949430525302887e-01</leafValues></_>
        <_>
          <internalNodes>
            0 -1 230 8.5073495283722878e-03</internalNodes>
          <leafValues>
            -1.2153329700231552e-01 3.6400008201599121e-01</leafValues></_>
        <_>
          <internalNodes>
            0 -1 332 -1.5904658939689398e-03</internalNodes>
          <leafValues>
            2.3952482640743256e-01 -1.4327365159988403e-01</leafValues></_>
        <_>
          <internalNodes>
            0 -1 254 -3.3675560262054205e-03</internalNodes>
          <leafValues>
            2.6404970884323120e-01 -1.2760625779628754e-01</leafValues></_>
        <_>
          <internalNodes>
            0 -1 255 1.9812663958873600e-04</internalNodes>
          <leafValues>
            -3.0054017901420593e-01 1.0647781193256378e-01</leafValues></_>
        <_>
          <internalNodes>
            0 -1 29 -1.2945246417075396e-03</internalNodes>
          <leafValues>
            -3.9953666925430298e-01 6.4659819006919861e-02</leafValues></_>
        <_>
          <internalNodes>
            0 -1 412 -2.6130308397114277e-03</internalNodes>
          <leafValues>
            3.3151361346244812e-01 -8.4359489381313324e-02</leafValues></_>
        <_>
          <internalNodes>
            0 -1 154 3.8563512265682220e-02</internalNodes>
          <leafValues>
            6.2140997499227524e-02 -4.8033687472343445e-01</leafValues></_>
        <_>
          <internalNodes>
            0 -1 450 1.5427512116730213e-03</internalNodes>
          <leafValues>
            6.1174463480710983e-02 -3.9284387230873108e-01</leafValues></_>
        <_>
          <internalNodes>
            0 -1 199 -3.1571164727210999e-02</internalNodes>
          <leafValues>
            -5.9559929370880127e-01 3.8801729679107666e-02</leafValues></_>
        <_>
          <internalNodes>
            0 -1 71 1.2058464344590902e-03</internalNodes>
          <leafValues>
            -1.0558084398508072e-01 2.2208338975906372e-01</leafValues></_>
        <_>
          <internalNodes>
            0 -1 344 -4.1373353451490402e-03</internalNodes>
          <leafValues>
            -3.9044958353042603e-01 6.6636480391025543e-02</leafValues></_>
        <_>
          <internalNodes>
            0 -1 219 -4.9829803174361587e-05</internalNodes>
          <leafValues>
            1.5445663034915924e-01 -1.6379399597644806e-01</leafValues></_>
        <_>
          <internalNodes>
            0 -1 108 -3.4999903291463852e-03</internalNodes>
          <leafValues>
            -5.9058141708374023e-01 4.6244252473115921e-02</leafValues></_>
        <_>
          <internalNodes>
            0 -1 359 -9.1388821601867676e-03</internalNodes>
          <leafValues>
            -3.1762722134590149e-01 7.8948639333248138e-02</leafValues></_>
        <_>
          <internalNodes>
            0 -1 385 4.4604279100894928e-03</internalNodes>
          <leafValues>
            -7.6178573071956635e-02 3.5587516427040100e-01</leafValues></_>
        <_>
          <internalNodes>
            0 -1 289 1.7838364001363516e-03</internalNodes>
          <leafValues>
            -1.1665668338537216e-01 2.0404309034347534e-01</leafValues></_>
        <_>
          <internalNodes>
            0 -1 410 4.6573355793952942e-03</internalNodes>
          <leafValues>
            6.6716544330120087e-02 -3.7553483247756958e-01</leafValues></_>
        <_>
          <internalNodes>
            0 -1 336 -5.8744098059833050e-03</internalNodes>
          <leafValues>
            3.6271277070045471e-01 -6.8495370447635651e-02</leafValues></_>
        <_>
          <internalNodes>
            0 -1 209 -3.2062446698546410e-03</internalNodes>
          <leafValues>
            -4.7698819637298584e-01 4.9217987805604935e-02</leafValues></_>
        <_>
          <internalNodes>
            0 -1 381 -2.8850843664258718e-03</internalNodes>
          <leafValues>
            2.7854692935943604e-01 -9.0893387794494629e-02</leafValues></_>
        <_>
          <internalNodes>
            0 -1 38 -1.3568523572757840e-03</internalNodes>
          <leafValues>
            -3.7136054039001465e-01 6.1820693314075470e-02</leafValues></_>
        <_>
          <internalNodes>
            0 -1 238 2.3430952569469810e-04</internalNodes>
          <leafValues>
            9.2314369976520538e-02 -2.3406480252742767e-01</leafValues></_>
        <_>
          <internalNodes>
            0 -1 94 2.4653973057866096e-02</internalNodes>
          <leafValues>
            2.8882011771202087e-02 -7.2019761800765991e-01</leafValues></_>
        <_>
          <internalNodes>
            0 -1 86 -1.1731465347111225e-03</internalNodes>
          <leafValues>
            -2.1729022264480591e-01 9.4567447900772095e-02</leafValues></_>
        <_>
          <internalNodes>
            0 -1 395 -2.0909195765852928e-02</internalNodes>
          <leafValues>
            -4.3592545390129089e-01 5.5756472051143646e-02</leafValues></_>
        <_>
          <internalNodes>
            0 -1 368 -2.2330018691718578e-03</internalNodes>
          <leafValues>
            3.5639718174934387e-01 -6.2746383249759674e-02</leafValues></_>
        <_>
          <internalNodes>
            0 -1 342 -1.5468577621504664e-03</internalNodes>
          <leafValues>
            2.0720502734184265e-01 -1.0683083534240723e-01</leafValues></_>
        <_>
          <internalNodes>
            0 -1 266 -6.0483226552605629e-03</internalNodes>
          <leafValues>
            3.4421110153198242e-01 -5.9762086719274521e-02</leafValues></_>
        <_>
          <internalNodes>
            0 -1 181 -7.3465739842504263e-04</internalNodes>
          <leafValues>
            2.2039204835891724e-01 -9.8766878247261047e-02</leafValues></_>
        <_>
          <internalNodes>
            0 -1 445 5.4368237033486366e-03</internalNodes>
          <leafValues>
            6.3258707523345947e-02 -3.6696630716323853e-01</leafValues></_>
        <_>
          <internalNodes>
            0 -1 362 -2.4469149138894863e-05</internalNodes>
          <leafValues>
            1.0053797811269760e-01 -2.1122227609157562e-01</leafValues></_>
        <_>
          <internalNodes>
            0 -1 365 1.1909632943570614e-02</internalNodes>
          <leafValues>
            4.0029361844062805e-02 -5.9436279535293579e-01</leafValues></_>
        <_>
          <internalNodes>
            0 -1 464 -1.0999870719388127e-03</internalNodes>
          <leafValues>
            -3.0610293149948120e-01 7.0366717875003815e-02</leafValues></_>
        <_>
          <internalNodes>
            0 -1 130 3.9419350214302540e-03</internalNodes>
          <leafValues>
            -5.7792618870735168e-02 4.6469593048095703e-01</leafValues></_>
        <_>
          <internalNodes>
            0 -1 91 -1.1192283127456903e-03</internalNodes>
          <leafValues>
            2.1145373582839966e-01 -1.0806664079427719e-01</leafValues></_>
        <_>
          <internalNodes>
            0 -1 456 -4.8321229405701160e-04</internalNodes>
          <leafValues>
            -1.8977633118629456e-01 1.1656478792428970e-01</leafValues></_>
        <_>
          <internalNodes>
            0 -1 300 -8.0529588740319014e-04</internalNodes>
          <leafValues>
            1.6969043016433716e-01 -1.3040092587471008e-01</leafValues></_>
        <_>
          <internalNodes>
            0 -1 43 4.0515843778848648e-02</internalNodes>
          <leafValues>
            -7.6352633535861969e-02 2.9816991090774536e-01</leafValues></_>
        <_>
          <internalNodes>
            0 -1 455 -2.8249064926058054e-03</internalNodes>
          <leafValues>
            -4.5333975553512573e-01 5.4140366613864899e-02</leafValues></_>
        <_>
          <internalNodes>
            0 -1 90 3.5151480697095394e-03</internalNodes>
          <leafValues>
            -6.3603028655052185e-02 3.6604884266853333e-01</leafValues></_>
        <_>
          <internalNodes>
            0 -1 198 -2.6363516226410866e-03</internalNodes>
          <leafValues>
            -3.3460107445716858e-01 6.6555343568325043e-02</leafValues></_>
        <_>
          <internalNodes>
            0 -1 167 8.8745374232530594e-03</internalNodes>
          <leafValues>
            7.3272116482257843e-02 -2.9902964830398560e-01</leafValues></_>
        <_>
          <internalNodes>
            0 -1 186 -1.6961534321308136e-01</internalNodes>
          <leafValues>
            -9.2288440465927124e-01 2.5762502104043961e-02</leafValues></_>
        <_>
          <internalNodes>
            0 -1 84 2.9913382604718208e-03</internalNodes>
          <leafValues>
            4.8936344683170319e-02 -4.1505002975463867e-01</leafValues></_>
        <_>
          <internalNodes>
            0 -1 193 5.1924545550718904e-04</internalNodes>
          <leafValues>
            -1.1806929111480713e-01 1.8465867638587952e-01</leafValues></_>
        <_>
          <internalNodes>
            0 -1 60 -2.5982744991779327e-02</internalNodes>
          <leafValues>
            -4.2304718494415283e-01 5.2491884678602219e-02</leafValues></_>
        <_>
          <internalNodes>
            0 -1 80 -1.3526332331821322e-03</internalNodes>
          <leafValues>
            2.2608482837677002e-01 -1.0765205323696136e-01</leafValues></_>
        <_>
          <internalNodes>
            0 -1 0 -3.4888729453086853e-02</internalNodes>
          <leafValues>
            4.9430418014526367e-01 -4.5284800231456757e-02</leafValues></_>
        <_>
          <internalNodes>
            0 -1 274 -2.8951787389814854e-03</internalNodes>
          <leafValues>
            2.7480572462081909e-01 -8.8733725249767303e-02</leafValues></_>
        <_>
          <internalNodes>
            0 -1 49 -1.4006076380610466e-02</internalNodes>
          <leafValues>
            -4.5594245195388794e-01 5.1485262811183929e-02</leafValues></_>
        <_>
          <internalNodes>
            0 -1 278 -1.3201303780078888e-02</internalNodes>
          <leafValues>
            4.8542806506156921e-01 -4.9576573073863983e-02</leafValues></_>
        <_>
          <internalNodes>
            0 -1 418 -4.2511196807026863e-03</internalNodes>
          <leafValues>
            -4.0179961919784546e-01 5.9340309351682663e-02</leafValues></_>
        <_>
          <internalNodes>
            0 -1 264 1.8208090914413333e-03</internalNodes>
          <leafValues>
            9.2788226902484894e-02 -2.3641531169414520e-01</leafValues></_>
        <_>
          <internalNodes>
            0 -1 421 -4.1562961414456367e-03</internalNodes>
          <leafValues>
            3.3658146858215332e-01 -7.1327015757560730e-02</leafValues></_>
        <_>
          <internalNodes>
            0 -1 312 2.8089080005884171e-02</internalNodes>
          <leafValues>
            3.8295656442642212e-02 -5.8142656087875366e-01</leafValues></_>
        <_>
          <internalNodes>
            0 -1 233 -5.3920964710414410e-03</internalNodes>
          <leafValues>
            2.7313086390495300e-01 -8.8382229208946228e-02</leafValues></_>
        <_>
          <internalNodes>
            0 -1 453 -7.3007717728614807e-02</internalNodes>
          <leafValues>
            5.1157116889953613e-01 -4.2801633477210999e-02</leafValues></_>
        <_>
          <internalNodes>
            0 -1 205 3.0641849152743816e-03</internalNodes>
          <leafValues>
            -1.0856804251670837e-01 2.2305752336978912e-01</leafValues></_></weakClassifiers></_>
    <!-- stage 13 -->
    <_>
      <maxWeakCount>59</maxWeakCount>
      <stageThreshold>-6.8892717361450195e-01</stageThreshold>
      <weakClassifiers>
        <_>
          <internalNodes>
            0 -1 64 7.3480978608131409e-02</internalNodes>
          <leafValues>
            1.0863095521926880e-01 5.8374792337417603e-01</leafValues></_>
        <_>
          <internalNodes>
            0 -1 53 -2.4356436915695667e-03</internalNodes>
          <leafValues>
            2.9182988405227661e-01 -1.5089534223079681e-01</leafValues></_>
        <_>
          <internalNodes>
            0 -1 335 1.0029837489128113e-02</internalNodes>
          <leafValues>
            -9.3895249068737030e-02 4.3656721711158752e-01</leafValues></_>
        <_>
          <internalNodes>
            0 -1 185 -6.8787629716098309e-03</internalNodes>
          <leafValues>
            4.0934365987777710e-01 -1.2391930073499680e-01</leafValues></_>
        <_>
          <internalNodes>
